{"learner":{"attributes":{"scikit_learn":"{\"_estimator_type\": \"classifier\"}"},"feature_names":[],"feature_types":[],"gradient_booster":{"model":{"gbtree_model_param":{"num_parallel_tree":"1","num_trees":"1100"},"iteration_indptr":[0,11,22,33,44,55,66,77,88,99,110,121,132,143,154,165,176,187,198,209,220,231,242,253,264,275,286,297,308,319,330,341,352,363,374,385,396,407,418,429,440,451,462,473,484,495,506,517,528,539,550,561,572,583,594,605,616,627,638,649,660,671,682,693,704,715,726,737,748,759,770,781,792,803,814,825,836,847,858,869,880,891,902,913,924,935,946,957,968,979,990,1001,1012,1023,1034,1045,1056,1067,1078,1089,1100],"tree_info":[0,1,2,3,4,5,6,7,8,9,10,0,1,2,3,4,5,6,7,8,9,10,0,1,2,3,4,5,6,7,8,9,10,0,1,2,3,4,5,6,7,8,9,10,0,1,2,3,4,5,6,7,8,9,10,0,1,2,3,4,5,6,7,8,9,10,0,1,2,3,4,5,6,7,8,9,10,0,1,2,3,4,5,6,7,8,9,10,0,1,2,3,4,5,6,7,8,9,10,0,1,2,3,4,5,6,7,8,9,10,0,1,2,3,4,5,6,7,8,9,10,0,1,2,3,4,5,6,7,8,9,10,0,1,2,3,4,5,6,7,8,9,10,0,1,2,3,4,5,6,7,8,9,10,0,1,2,3,4,5,6,7,8,9,10,0,1,2,3,4,5,6,7,8,9,10,0,1,2,3,4,5,6,7,8,9,10,0,1,2,3,4,5,6,7,8,9,10,0,1,2,3,4,5,6,7,8,9,10,0,1,2,3,4,5,6,7,8,9,10,0,1,2,3,4,5,6,7,8,9,10,0,1,2,3,4,5,6,7,8,9,10,0,1,2,3,4,5,6,7,8,9,10,0,1,2,3,4,5,6,7,8,9,10,0,1,2,3,4,5,6,7,8,9,10,0,1,2,3,4,5,6,7,8,9,10,0,1,2,3,4,5,6,7,8,9,10,0,1,2,3,4,5,6,7,8,9,10,0,1,2,3,4,5,6,7,8,9,10,0,1,2,3,4,5,6,7,8,9,10,0,1,2,3,4,5,6,7,8,9,10,0,1,2,3,4,5,6,7,8,9,10,0,1,2,3,4,5,6,7,8,9,10,0,1,2,3,4,5,6,7,8,9,10,0,1,2,3,4,5,6,7,8,9,10,0,1,2,3,4,5,6,7,8,9,10,0,1,2,3,4,5,6,7,8,9,10,0,1,2,3,4,5,6,7,8,9,10,0,1,2,3,4,5,6,7,8,9,10,0,1,2,3,4,5,6,7,8,9,10,0,1,2,3,4,5,6,7,8,9,10,0,1,2,3,4,5,6,7,8,9,10,0,1,2,3,4,5,6,7,8,9,10,0,1,2,3,4,5,6,7,8,9,10,0,1,2,3,4,5,6,7,8,9,10,0,1,2,3,4,5,6,7,8,9,10,0,1,2,3,4,5,6,7,8,9,10,0,1,2,3,4,5,6,7,8,9,10,0,1,2,3,4,5,6,7,8,9,10,0,1,2,3,4,5,6,7,8,9,10,0,1,2,3,4,5,6,7,8,9,10,0,1,2,3,4,5,6,7,8,9,10,0,1,2,3,4,5,6,7,8,9,10,0,1,2,3,4,5,6,7,8,9,10,0,1,2,3,4,5,6,7,8,9,10,0,1,2,3,4,5,6,7,8,9,10,0,1,2,3,4,5,6,7,8,9,10,0,1,2,3,4,5,6,7,8,9,10,0,1,2,3,4,5,6,7,8,9,10,0,1,2,3,4,5,6,7,8,9,10,0,1,2,3,4,5,6,7,8,9,10,0,1,2,3,4,5,6,7,8,9,10,0,1,2,3,4,5,6,7,8,9,10,0,1,2,3,4,5,6,7,8,9,10,0,1,2,3,4,5,6,7,8,9,10,0,1,2,3,4,5,6,7,8,9,10,0,1,2,3,4,5,6,7,8,9,10,0,1,2,3,4,5,6,7,8,9,10,0,1,2,3,4,5,6,7,8,9,10,0,1,2,3,4,5,6,7,8,9,10,0,1,2,3,4,5,6,7,8,9,10,0,1,2,3,4,5,6,7,8,9,10,0,1,2,3,4,5,6,7,8,9,10,0,1,2,3,4,5,6,7,8,9,10,0,1,2,3,4,5,6,7,8,9,10,0,1,2,3,4,5,6,7,8,9,10,0,1,2,3,4,5,6,7,8,9,10,0,1,2,3,4,5,6,7,8,9,10,0,1,2,3,4,5,6,7,8,9,10,0,1,2,3,4,5,6,7,8,9,10,0,1,2,3,4,5,6,7,8,9,10,0,1,2,3,4,5,6,7,8,9,10,0,1,2,3,4,5,6,7,8,9,10,0,1,2,3,4,5,6,7,8,9,10,0,1,2,3,4,5,6,7,8,9,10,0,1,2,3,4,5,6,7,8,9,10,0,1,2,3,4,5,6,7,8,9,10,0,1,2,3,4,5,6,7,8,9,10,0,1,2,3,4,5,6,7,8,9,10,0,1,2,3,4,5,6,7,8,9,10,0,1,2,3,4,5,6,7,8,9,10,0,1,2,3,4,5,6,7,8,9,10,0,1,2,3,4,5,6,7,8,9,10,0,1,2,3,4,5,6,7,8,9,10,0,1,2,3,4,5,6,7,8,9,10,0,1,2,3,4,5,6,7,8,9,10,0,1,2,3,4,5,6,7,8,9,10,0,1,2,3,4,5,6,7,8,9,10,0,1,2,3,4,5,6,7,8,9,10,0,1,2,3,4,5,6,7,8,9,10],"trees":[{"base_weights":[1.1422863E-1,-1.3372548E-1,9.577087E-1,-4.5291567E-1,9.0827465E-2,1.413074E0,1.8476402E-2,-5.2780133E-1,-3.488929E-1,1.3074447E0,-9.305473E-3,2.1291435E0,2.467109E-1,-9.505198E-2,2.1324375E0,-5.3729254E-1,-6.864277E-2,-1.182481E-2,-4.3089104E-1,2.9947643E0,-7.385307E-2,-7.196896E-2,1.0924534E0,3.000294E0,1.1124815E0,-1.0403846E-1,1.8473282E0,2.0188774E-1,-5.0448924E-1,9.354331E-1,-8.850576E-2,1.0280368E-2,-5.422117E-1,1.8965517E-1,-1.2514971E-1,-2.36595E-1,1.362292E0,2.0612087E-2,-4.8131722E-1,1.3934025E0,1.1748493E0,9.6916294E-1,-4.045262E-1,7.021657E-1,-1.712815E-1,4.3633476E-1,3.3948562E0,2.2649047E0,4.5810876E0,3.8949314E-1,2.7017543E0,-2.3715048E-1,6.496063E-1,-1.89329E-2,2.7247705E0,-3.6775905E-1,8.032612E-1,-1.5998495E-1,5.057471E-2,-1.6414903E-1,-8.906883E-2,2.3061565E-1,-1.3218717E-1,8.0186915E-1,-1.0645162E-1,-1.2175251E-1,3.9976245E-1,5.057471E-2,-1.4693414E-1,6.0422534E-1,-1.2514971E-1,-4.2950116E-2,6.3870966E-1,-1.5391451E-1,4.4897955E-2,4.1772142E-2,6.8638355E-1,7.4406195E-1,-6.101943E-2,4.6806422E-1,-1.280079E-1,1.1971209E0,1.8965517E-1,1.0587684E0,3.4183267E-1,1.4495003E0,1.8965517E-1,4.4541386E-1,-2.9796852E-2,9.178808E-1,-6.345011E-9,-1.2285057E-1,2.6969352E-1,1.8965517E-1,-1.197279E-1,9.809751E-1,-8.850576E-2,-1.4491254E-1,2.1290323E-1,4.5040303E-1,-1.46531E-1],"categories":[],"categories_nodes":[],"categories_segments":[],"categories_sizes":[],"default_left":[0,0,0,0,0,0,0,0,0,0,0,0,0,0,0,0,0,0,0,0,0,0,0,0,0,0,0,0,0,0,0,0,0,0,0,0,0,0,0,0,0,0,0,0,0,0,0,0,0,0,0,0,0,0,0,0,0,0,0,0,0,0,0,0,0,0,0,0,0,0,0,0,0,0,0,0,0,0,0,0,0,0,0,0,0,0,0,0,0,0,0,0,0,0,0,0,0,0,0,0,0],"id":0,"left_children":[1,3,5,7,9,11,13,15,17,19,21,23,25,27,29,31,33,35,37,39,41,43,45,47,49,51,53,55,57,-1,-1,-1,59,-1,-1,61,63,65,67,-1,69,71,73,75,77,79,81,83,85,87,89,91,-1,93,95,97,99,-1,-1,-1,-1,-1,-1,-1,-1,-1,-1,-1,-1,-1,-1,-1,-1,-1,-1,-1,-1,-1,-1,-1,-1,-1,-1,-1,-1,-1,-1,-1,-1,-1,-1,-1,-1,-1,-1,-1,-1,-1,-1,-1,-1],"loss_changes":[2.3298871E2,6.1777084E1,1.08208725E2,2.588066E0,6.1710205E1,1.4181018E2,2.0276949E1,8.563576E-1,4.193512E0,9.000092E1,3.245384E1,9.006705E1,3.7222416E1,9.869301E0,1.12222595E1,5.8278656E-1,1.5576668E0,9.820411E0,2.7911396E0,4.6680954E1,8.033952E0,3.430448E1,3.673439E1,5.4964447E1,5.669335E1,1.7143082E1,1.9553158E1,1.6492477E1,7.499542E-1,0E0,0E0,0E0,7.92923E-2,0E0,0E0,5.934404E0,1.101051E1,7.9434705E0,6.871853E-1,0E0,1.3659901E1,7.5659404E0,1.1309974E0,4.4986534E1,3.413154E1,2.0874132E1,6.46529E0,5.3378754E1,1.3636383E1,1.9265602E1,1.5029633E1,1.0726826E1,0E0,1.4408467E0,1.4311363E1,3.4439437E0,2.1755846E1,0E0,0E0,0E0,0E0,0E0,0E0,0E0,0E0,0E0,0E0,0E0,0E0,0E0,0E0,0E0,0E0,0E0,0E0,0E0,0E0,0E0,0E0,0E0,0E0,0E0,0E0,0E0,0E0,0E0,0E0,0E0,0E0,0E0,0E0,0E0,0E0,0E0,0E0,0E0,0E0,0E0,0E0,0E0,0E0],"parents":[2147483647,0,0,1,1,2,2,3,3,4,4,5,5,6,6,7,7,8,8,9,9,10,10,11,11,12,12,13,13,14,14,15,15,16,16,17,17,18,18,19,19,20,20,21,21,22,22,23,23,24,24,25,25,26,26,27,27,28,28,32,32,35,35,36,36,37,37,38,38,40,40,41,41,42,42,43,43,44,44,45,45,46,46,47,47,48,48,49,49,50,50,51,51,53,53,54,54,55,55,56,56],"right_children":[2,4,6,8,10,12,14,16,18,20,22,24,26,28,30,32,34,36,38,40,42,44,46,48,50,52,54,56,58,-1,-1,-1,60,-1,-1,62,64,66,68,-1,70,72,74,76,78,80,82,84,86,88,90,92,-1,94,96,98,100,-1,-1,-1,-1,-1,-1,-1,-1,-1,-1,-1,-1,-1,-1,-1,-1,-1,-1,-1,-1,-1,-1,-1,-1,-1,-1,-1,-1,-1,-1,-1,-1,-1,-1,-1,-1,-1,-1,-1,-1,-1,-1,-1,-1],"split_conditions":[3.8751256E-1,-4.7408628E-1,1.9121327E-1,-2.4556248E-1,-1.3757069E0,4.6698886E-1,5.9433126E-1,1.9967228E-1,-4.4285482E-1,-6.5905525E-4,1.3654704E0,-3.2263976E-1,1.0331184E0,1.2165671E-1,1.1933656E-1,-2.2928534E0,-1.0015203E0,1.0827817E0,-6.797065E-1,-1.2746629E0,3.3452624E-1,-5.6200606E-1,1.3353343E0,1.0396115E0,1.9305062E-1,3.614201E0,-5.422353E-1,5.9979975E-1,3.740175E0,9.354331E-1,-8.850576E-2,1.0280368E-2,1.4076436E-1,1.8965517E-1,-1.2514971E-1,-6.107391E-1,2.7971882E-1,-1.218701E-1,-1.3133628E0,1.3934025E0,-2.5294194E-1,-6.670065E-1,7.4948674E-1,-2.5701445E-1,-2.0425344E0,-3.0159655E-1,3.395404E-1,1.9307135E-1,9.83239E-1,-3.3891296E-1,1.2944083E-1,8.017073E-1,6.496063E-1,-2.3799026E-1,-6.945312E-1,1.8700145E0,6.90033E-1,-1.5998495E-1,5.057471E-2,-1.6414903E-1,-8.906883E-2,2.3061565E-1,-1.3218717E-1,8.0186915E-1,-1.0645162E-1,-1.2175251E-1,3.9976245E-1,5.057471E-2,-1.4693414E-1,6.0422534E-1,-1.2514971E-1,-4.2950116E-2,6.3870966E-1,-1.5391451E-1,4.4897955E-2,4.1772142E-2,6.8638355E-1,7.4406195E-1,-6.101943E-2,4.6806422E-1,-1.280079E-1,1.1971209E0,1.8965517E-1,1.0587684E0,3.4183267E-1,1.4495003E0,1.8965517E-1,4.4541386E-1,-2.9796852E-2,9.178808E-1,-6.345011E-9,-1.2285057E-1,2.6969352E-1,1.8965517E-1,-1.197279E-1,9.809751E-1,-8.850576E-2,-1.4491254E-1,2.1290323E-1,4.5040303E-1,-1.46531E-1],"split_indices":[11,63,1,74,61,108,116,11,117,112,52,65,55,26,61,40,22,53,41,57,112,7,105,111,9,119,105,91,95,0,0,0,109,0,0,7,115,11,25,0,65,22,12,11,17,45,14,3,41,115,108,105,0,15,115,117,6,0,0,0,0,0,0,0,0,0,0,0,0,0,0,0,0,0,0,0,0,0,0,0,0,0,0,0,0,0,0,0,0,0,0,0,0,0,0,0,0,0,0,0,0],"split_type":[0,0,0,0,0,0,0,0,0,0,0,0,0,0,0,0,0,0,0,0,0,0,0,0,0,0,0,0,0,0,0,0,0,0,0,0,0,0,0,0,0,0,0,0,0,0,0,0,0,0,0,0,0,0,0,0,0,0,0,0,0,0,0,0,0,0,0,0,0,0,0,0,0,0,0,0,0,0,0,0,0,0,0,0,0,0,0,0,0,0,0,0,0,0,0,0,0,0,0,0,0],"sum_hessian":[1.1123967E3,8.6033057E2,2.5206612E2,3.5487604E2,5.0545453E2,1.6942148E2,8.264462E1,2.0396693E2,1.5090909E2,3.752066E1,4.6793387E2,1.0446281E2,6.495868E1,7.9338844E1,3.3057852E0,1.9966942E2,4.2975206E0,2.9752066E1,1.2115702E2,1.6363636E1,2.1157024E1,4.4363635E2,2.429752E1,5.520661E1,4.92562E1,5.4049587E1,1.0909091E1,4.628099E1,3.305785E1,2.1487603E0,1.1570247E0,1.6528926E0,1.9801653E2,1.1570247E0,3.1404958E0,2.628099E1,3.4710743E0,1.2231404E1,1.0892562E2,7.7685947E0,8.595041E0,4.628099E0,1.6528925E1,4.9752064E1,3.9388428E2,1.9834711E1,4.46281E0,3.933884E1,1.5867768E1,3.4710743E1,1.4545454E1,5.1900826E1,2.1487603E0,3.801653E0,7.107438E0,2.3966942E1,2.2314049E1,3.1900826E1,1.1570247E0,1.9289256E2,5.1239667E0,3.966942E0,2.2314049E1,1.6528926E0,1.8181818E0,9.752066E0,2.479339E0,1.1570247E0,1.0776859E2,5.4545455E0,3.1404958E0,2.8099172E0,1.8181818E0,1.3884297E1,2.644628E0,3.752066E1,1.2231404E1,3.801653E0,3.9008264E2,8.264462E0,1.1570248E1,3.3057852E0,1.1570247E0,1.752066E1,2.1818182E1,1.4710744E1,1.1570247E0,1.0082644E1,2.46281E1,1.2727272E1,1.8181818E0,4.5619835E1,6.2809916E0,1.1570247E0,2.644628E0,5.950413E0,1.1570247E0,2.214876E1,1.8181818E0,1.4380165E1,7.933884E0],"tree_param":{"num_deleted":"0","num_feature":"120","num_nodes":"101","size_leaf_vector":"1"}},{"base_weights":[-1.1300395E-1,-3.0444592E-1,8.5788214E-1,5.626526E-1,-3.6837494E-1,3.4072752E0,2.1247408E-1,-3.9462852E-1,2.281685E0,1.7521214E-1,-4.1637215E-1,4.272567E0,6.1365527E-1,-4.1296735E-2,3.7368858E0,2.8838947E-1,-5.075775E-1,3.194953E0,-7.325197E-2,-1.6625762E-1,2.848114E0,-4.6411186E-1,8.560308E-2,-8.2294285E-2,4.666453E0,-1.2087915E-1,8.0186915E-1,-2.5898117E-1,1.4780763E0,1.0280368E-2,1.3417583E0,-1.3479578E-1,6.068966E-1,5.057471E-2,-1.6033638E-1,4.3137252E-1,3.9310563E0,-1.3063684E-1,4.2403626E-1,-4.7569627E-1,7.0302737E-1,1.2574043E0,5.4890215E-1,-4.7603342E-1,1.25273E0,-3.0886182E-1,2.2913144E0,5.057471E-2,-8.850576E-2,3.9307478E-1,4.89101E0,-1.4181186E-1,3.2873562E-1,5.9459454E-1,-4.4537336E-1,2.848114E0,2.7042028E-1,-1.175772E-1,4.678161E-1,1.4252491E-1,1.300214E0,-9.867111E-2,3.2873562E-1,-1.6130348E-1,9.221557E-2,9.5034015E-1,1.1243602E-2,-1.096953E-1,4.678161E-1,-1.454473E-1,4.565718E-2,-1.2169198E-1,9.8671097E-1,-1.2517077E-1,3.4158966E-1,-6.470589E-2,1.0808363E0,1.510945E0,3.2873562E-1,-1.0247454E-1,9.106439E-1,-1.4212506E-1,2.1290323E-1,4.4897955E-2,1.238124E0,-7.064221E-2,4.279302E-1],"categories":[],"categories_nodes":[],"categories_segments":[],"categories_sizes":[],"default_left":[0,0,0,0,0,0,0,0,0,0,0,0,0,0,0,0,0,0,0,0,0,0,0,0,0,0,0,0,0,0,0,0,0,0,0,0,0,0,0,0,0,0,0,0,0,0,0,0,0,0,0,0,0,0,0,0,0,0,0,0,0,0,0,0,0,0,0,0,0,0,0,0,0,0,0,0,0,0,0,0,0,0,0,0,0,0,0],"id":1,"left_children":[1,3,5,7,9,11,13,15,17,19,21,23,25,27,29,31,33,35,37,39,41,43,45,47,49,51,-1,53,55,-1,-1,-1,-1,-1,-1,57,59,-1,61,63,65,-1,67,69,71,73,75,-1,-1,-1,77,-1,-1,79,81,83,85,-1,-1,-1,-1,-1,-1,-1,-1,-1,-1,-1,-1,-1,-1,-1,-1,-1,-1,-1,-1,-1,-1,-1,-1,-1,-1,-1,-1,-1,-1],"loss_changes":[2.0720638E2,5.1801437E1,3.0144467E2,1.0672185E2,2.2705193E1,8.689804E1,1.3217705E2,3.398634E0,5.001982E1,6.535173E1,1.9147873E1,4.859729E1,1.5336431E1,4.6252316E1,2.6882126E1,9.379898E0,7.54097E-1,3.228177E1,1.5258722E0,1.7543142E1,2.2738205E1,1.5502182E1,6.1692097E1,2.2659822E-1,1.3030945E1,4.0591707E0,0E0,1.9699982E1,2.8232021E1,0E0,0E0,0E0,0E0,0E0,0E0,4.9169073E0,1.6138474E1,0E0,2.2038124E0,2.4842157E0,2.8093899E1,0E0,4.3965974E0,4.072052E0,1.9223625E1,9.940481E0,3.6128395E1,0E0,0E0,0E0,7.626587E0,0E0,0E0,5.2045555E1,3.6412296E0,2.7362984E1,6.4305897E0,0E0,0E0,0E0,0E0,0E0,0E0,0E0,0E0,0E0,0E0,0E0,0E0,0E0,0E0,0E0,0E0,0E0,0E0,0E0,0E0,0E0,0E0,0E0,0E0,0E0,0E0,0E0,0E0,0E0,0E0],"parents":[2147483647,0,0,1,1,2,2,3,3,4,4,5,5,6,6,7,7,8,8,9,9,10,10,11,11,12,12,13,13,14,14,15,15,16,16,17,17,18,18,19,19,20,20,21,21,22,22,23,23,24,24,25,25,27,27,28,28,35,35,36,36,38,38,39,39,40,40,42,42,43,43,44,44,45,45,46,46,50,50,53,53,54,54,55,55,56,56],"right_children":[2,4,6,8,10,12,14,16,18,20,22,24,26,28,30,32,34,36,38,40,42,44,46,48,50,52,-1,54,56,-1,-1,-1,-1,-1,-1,58,60,-1,62,64,66,-1,68,70,72,74,76,-1,-1,-1,78,-1,-1,80,82,84,86,-1,-1,-1,-1,-1,-1,-1,-1,-1,-1,-1,-1,-1,-1,-1,-1,-1,-1,-1,-1,-1,-1,-1,-1,-1,-1,-1,-1,-1,-1],"split_conditions":[9.2607164E-1,-1.440845E0,-1.008408E0,-1.2224821E-1,-1.1410906E0,7.78696E-1,2.220206E0,-1.0651916E0,-2.314935E-1,1.0029325E0,1.7337025E0,3.5678145E-2,6.965539E-1,3.5241726E-1,-7.481625E-1,8.962839E-1,-1.6570483E0,-4.9417022E-1,-6.737306E-1,1.3459393E-1,-5.966969E-1,3.1300836E0,6.98579E-1,-5.083528E-2,-7.4380025E-2,6.0349405E-1,8.0186915E-1,-4.334493E-1,-8.240435E-1,1.0280368E-2,1.3417583E0,-1.3479578E-1,6.068966E-1,5.057471E-2,-1.6033638E-1,6.8120503E-1,6.945789E-2,-1.3063684E-1,-3.3715993E-1,1.2106754E0,-8.7156844E-1,1.2574043E0,1.3514723E-1,1.6959871E0,-8.761492E-1,1.0764327E0,2.8383058E-1,5.057471E-2,-8.850576E-2,3.9307478E-1,4.0519992E-1,-1.4181186E-1,3.2873562E-1,5.8894193E-1,1.7337025E0,-1.2342342E0,-8.831015E-3,-1.175772E-1,4.678161E-1,1.4252491E-1,1.300214E0,-9.867111E-2,3.2873562E-1,-1.6130348E-1,9.221557E-2,9.5034015E-1,1.1243602E-2,-1.096953E-1,4.678161E-1,-1.454473E-1,4.565718E-2,-1.2169198E-1,9.8671097E-1,-1.2517077E-1,3.4158966E-1,-6.470589E-2,1.0808363E0,1.510945E0,3.2873562E-1,-1.0247454E-1,9.106439E-1,-1.4212506E-1,2.1290323E-1,4.4897955E-2,1.238124E0,-7.064221E-2,4.279302E-1],"split_indices":[1,56,100,1,100,57,100,112,68,85,100,93,108,75,46,62,9,49,57,1,111,37,6,0,17,6,0,100,116,0,0,0,0,0,0,15,63,0,9,81,110,0,106,12,5,77,89,0,0,0,31,0,0,112,100,4,0,0,0,0,0,0,0,0,0,0,0,0,0,0,0,0,0,0,0,0,0,0,0,0,0,0,0,0,0,0,0],"split_type":[0,0,0,0,0,0,0,0,0,0,0,0,0,0,0,0,0,0,0,0,0,0,0,0,0,0,0,0,0,0,0,0,0,0,0,0,0,0,0,0,0,0,0,0,0,0,0,0,0,0,0,0,0,0,0,0,0,0,0,0,0,0,0,0,0,0,0,0,0,0,0,0,0,0,0,0,0,0,0,0,0,0,0,0,0,0,0],"sum_hessian":[1.1123967E3,9.297521E2,1.8264462E2,6.3305782E1,8.664463E2,3.603306E1,1.4661157E2,4.1157024E1,2.214876E1,7.008264E1,7.9636365E2,2.7107437E1,8.92562E0,1.3768594E2,8.92562E0,5.6198344E0,3.553719E1,1.5702479E1,6.446281E0,6.2975204E1,7.107438E0,7.272727E2,6.9090904E1,2.3140495E0,2.4793388E1,7.272727E0,1.6528926E0,1.2115702E2,1.6528925E1,1.6528926E0,7.272727E0,4.46281E0,1.1570247E0,1.1570247E0,3.4380165E1,3.6363635E0,1.2066115E1,3.801653E0,2.644628E0,4.677686E1,1.6198347E1,3.966942E0,3.1404958E0,7.229752E2,4.2975206E0,5.933884E1,9.752066E0,1.1570247E0,1.1570247E0,1.983471E0,2.2809917E1,6.115702E0,1.1570247E0,2.1322313E1,9.983471E1,7.107438E0,9.421488E0,2.479339E0,1.1570247E0,1.4876033E0,1.0578512E1,1.4876033E0,1.1570247E0,4.3636364E1,3.1404958E0,2.644628E0,1.3553719E1,1.983471E0,1.1570247E0,7.1322314E2,9.752066E0,2.8099172E0,1.4876033E0,5.5867767E1,3.4710743E0,3.6363635E0,6.115702E0,2.1652893E1,1.1570247E0,1.6033058E1,5.289256E0,9.8016525E1,1.8181818E0,2.644628E0,4.46281E0,7.107438E0,2.3140495E0],"tree_param":{"num_deleted":"0","num_feature":"120","num_nodes":"87","size_leaf_vector":"1"}},{"base_weights":[1.1871939E-1,2.7921705E0,-5.048063E-2,4.7804993E-3,3.8323917E0,2.5756295E0,-1.6803157E-1,-1.5379003E-1,1.4414976E0,4.6189957E0,8.324761E-1,-3.6644858E-1,3.769647E0,-2.4598019E-1,3.7109537E0,2.10395E0,-9.395019E-2,1.0977131E0,4.8865833E0,2.7440345E0,-1.2928504E-1,-1.5187378E-1,1.644128E-1,4.647887E-1,4.4293694E0,1.7107834E0,-3.352407E-1,1.5204283E0,-1.3651927E-1,1.2336448E-1,9.395018E-1,-1.0645162E-1,7.45977E-1,5.1657457E0,1.9411764E0,1.8965517E-1,1.0280374E0,2.935943E-1,-1.4181186E-1,6.8113875E-1,-1.3285026E-1,5.0680194E0,1.1468428E0,-5.3903982E-2,3.988163E0,5.8561698E-2,-5.1227444E-1,1.5756351E0,4.678161E-1,-9.867111E-2,9.354331E-1,1.5708052E0,3.2873562E-1,7.952909E-1,-1.197279E-1,6.8113875E-1,-8.304034E-2,-5.269462E-2,1.4495003E0,-2.604152E-2,7.3405194E-1,2.2635954E-2,-1.5812474E-1],"categories":[],"categories_nodes":[],"categories_segments":[],"categories_sizes":[],"default_left":[0,0,0,0,0,0,0,0,0,0,0,0,0,0,0,0,0,0,0,0,0,0,0,0,0,0,0,0,0,0,0,0,0,0,0,0,0,0,0,0,0,0,0,0,0,0,0,0,0,0,0,0,0,0,0,0,0,0,0,0,0,0,0],"id":2,"left_children":[1,3,5,7,9,11,13,-1,15,17,19,21,23,25,27,29,-1,31,33,35,37,-1,-1,39,41,43,45,-1,-1,-1,-1,-1,-1,47,49,-1,-1,-1,-1,-1,-1,51,53,55,57,59,61,-1,-1,-1,-1,-1,-1,-1,-1,-1,-1,-1,-1,-1,-1,-1,-1],"loss_changes":[5.0378372E2,1.9218744E2,3.2398532E2,1.4875416E1,1.1006622E2,1.5934543E2,3.0452628E2,0E0,6.8166313E0,3.0464844E1,2.1033672E1,2.0535173E0,6.787271E1,1.7266727E2,1.1449597E2,5.6277256E0,0E0,8.901981E0,1.8791748E1,3.3270779E0,3.6731727E0,0E0,0E0,1.1583605E1,4.9993225E1,1.736239E2,6.5782845E1,0E0,0E0,0E0,0E0,0E0,0E0,1.5947876E0,1.3412687E1,0E0,0E0,0E0,0E0,0E0,0E0,8.938049E0,1.4144909E1,1.3734978E1,6.705789E1,1.0207277E2,5.7033386E0,0E0,0E0,0E0,0E0,0E0,0E0,0E0,0E0,0E0,0E0,0E0,0E0,0E0,0E0,0E0,0E0],"parents":[2147483647,0,0,1,1,2,2,3,3,4,4,5,5,6,6,8,8,9,9,10,10,11,11,12,12,13,13,14,14,15,15,17,17,18,18,19,19,20,20,23,23,24,24,25,25,26,26,33,33,34,34,41,41,42,42,43,43,44,44,45,45,46,46],"right_children":[2,4,6,8,10,12,14,-1,16,18,20,22,24,26,28,30,-1,32,34,36,38,-1,-1,40,42,44,46,-1,-1,-1,-1,-1,-1,48,50,-1,-1,-1,-1,-1,-1,52,54,56,58,60,62,-1,-1,-1,-1,-1,-1,-1,-1,-1,-1,-1,-1,-1,-1,-1,-1],"split_conditions":[-1.4263636E0,-3.505794E-1,-1.7863009E0,7.333382E-2,-5.162887E-1,-5.0251615E-1,1.9005165E0,-1.5379003E-1,-2.9889444E-2,-8.6828806E-2,-8.5268575E-1,2.616827E-1,-7.244961E-1,-1.7024294E0,-8.001444E-1,-1.0553621E0,-9.395019E-2,2.6858956E-1,2.3847081E-1,-4.6748275E-1,-1.4478352E0,-1.5187378E-1,1.644128E-1,-1.1510333E0,-8.545768E-1,2.7776894E-1,-3.4913987E-1,1.5204283E0,-1.3651927E-1,1.2336448E-1,9.395018E-1,-1.0645162E-1,7.45977E-1,-1.6528E-1,1.0455767E0,1.8965517E-1,1.0280374E0,2.935943E-1,-1.4181186E-1,6.8113875E-1,-1.3285026E-1,4.4071713E-1,-3.585327E-1,-2.1234784E0,-6.0125446E-1,1.2664889E0,-1.2884505E0,1.5756351E0,4.678161E-1,-9.867111E-2,9.354331E-1,1.5708052E0,3.2873562E-1,7.952909E-1,-1.197279E-1,6.8113875E-1,-8.304034E-2,-5.269462E-2,1.4495003E0,-2.604152E-2,7.3405194E-1,2.2635954E-2,-1.5812474E-1],"split_indices":[78,88,13,64,119,16,65,0,33,0,53,80,77,33,57,22,0,4,76,14,33,0,0,45,65,60,85,0,0,0,0,0,0,54,20,0,0,0,0,0,0,19,85,45,64,65,53,0,0,0,0,0,0,0,0,0,0,0,0,0,0,0,0],"split_type":[0,0,0,0,0,0,0,0,0,0,0,0,0,0,0,0,0,0,0,0,0,0,0,0,0,0,0,0,0,0,0,0,0,0,0,0,0,0,0,0,0,0,0,0,0,0,0,0,0,0,0,0,0,0,0,0,0,0,0,0,0,0,0],"sum_hessian":[1.1123967E3,6.528925E1,1.0471074E3,1.801653E1,4.7272728E1,4.396694E1,1.0031405E3,1.3719008E1,4.2975206E0,3.702479E1,1.0247933E1,1.2892562E1,3.1074379E1,9.842975E2,1.8842976E1,2.9752066E0,1.322314E0,2.9752066E0,3.4049587E1,2.8099172E0,7.4380164E0,1.1570248E1,1.322314E0,5.4545455E0,2.5619835E1,4.2148758E1,9.4214874E2,1.4049586E1,4.7933884E0,1.6528926E0,1.322314E0,1.8181818E0,1.1570247E0,3.0413223E1,3.6363635E0,1.1570247E0,1.6528926E0,1.322314E0,6.115702E0,1.322314E0,4.132231E0,2.0991735E1,4.628099E0,2.429752E1,1.785124E1,2.923967E2,6.497521E2,2.9256197E1,1.1570247E0,1.4876033E0,2.1487603E0,1.9834711E1,1.1570247E0,1.983471E0,2.644628E0,1.322314E0,2.2975206E1,3.1404958E0,1.4710744E1,2.7652893E2,1.5867768E1,1.5867768E1,6.338843E2],"tree_param":{"num_deleted":"0","num_feature":"120","num_nodes":"63","size_leaf_vector":"1"}},{"base_weights":[-6.1237994E-3,-2.2330455E-1,3.0016518E0,-3.2494855E-1,3.947684E0,4.016453E0,6.4908016E-1,-3.5288522E-1,2.7475467E0,-1.3285026E-1,4.8468614E0,2.2567513E0,4.9959607E0,9.1710216E-1,2.2588141E-1,1.552522E0,-3.8688767E-1,-1.2349273E-1,1.292247E0,1.8965517E-1,5.064379E0,-5.1103394E-2,3.2412405E0,1.5407485E0,1.8965517E-1,-2.272946E-1,1.7004831E0,-1.5095004E-1,1.4181185E0,-5.216574E-1,5.822392E-2,1.5601082E0,4.678161E-1,-1.373093E-1,3.2873562E-1,-1.096953E-1,3.847435E0,-1.5283366E-1,6.470588E-1,-9.395019E-2,2.4815617E0,-1.580513E-1,2.0952381E-1,4.6149558E-1,-7.511296E-2,1.357033E0,-1.02803744E-1,-1.0645162E-1,4.2580646E-1,1.0280374E0,5.057471E-2],"categories":[],"categories_nodes":[],"categories_segments":[],"categories_sizes":[],"default_left":[0,0,0,0,0,0,0,0,0,0,0,0,0,0,0,0,0,0,0,0,0,0,0,0,0,0,0,0,0,0,0,0,0,0,0,0,0,0,0,0,0,0,0,0,0,0,0,0,0,0,0],"id":3,"left_children":[1,3,5,7,9,11,13,15,17,-1,19,21,23,-1,25,27,29,-1,-1,-1,31,33,35,-1,-1,37,39,-1,-1,41,43,-1,-1,-1,-1,-1,45,-1,47,-1,49,-1,-1,-1,-1,-1,-1,-1,-1,-1,-1],"loss_changes":[7.2797546E2,4.419202E2,1.7656586E2,8.813919E1,1.0005966E2,7.876782E1,2.3572536E1,6.586086E1,4.7429863E1,0E0,1.5747467E1,4.675222E1,1.6733276E1,0E0,1.4640757E1,1.18927216E2,5.9443344E1,0E0,0E0,0E0,1.1904297E0,3.8197215E0,3.286679E1,0E0,0E0,4.572466E0,8.849217E0,0E0,0E0,5.173477E0,1.0593397E2,0E0,0E0,0E0,0E0,0E0,3.668779E1,0E0,4.0910816E0,0E0,7.7519093E0,0E0,0E0,0E0,0E0,0E0,0E0,0E0,0E0,0E0,0E0],"parents":[2147483647,0,0,1,1,2,2,3,3,4,4,5,5,6,6,7,7,8,8,10,10,11,11,12,12,14,14,15,15,16,16,20,20,21,21,22,22,25,25,26,26,29,29,30,30,36,36,38,38,40,40],"right_children":[2,4,6,8,10,12,14,16,18,-1,20,22,24,-1,26,28,30,-1,-1,-1,32,34,36,-1,-1,38,40,-1,-1,42,44,-1,-1,-1,-1,-1,46,-1,48,-1,50,-1,-1,-1,-1,-1,-1,-1,-1,-1,-1],"split_conditions":[1.4414304E0,1.3641597E0,-3.6606196E-1,2.0049624E0,-4.416082E-1,4.6440908E-1,-8.35064E-1,-1.2299027E0,3.6055166E-1,-1.3285026E-1,-5.286451E-1,-2.1231134E-1,3.6449373E-1,9.1710216E-1,5.3026634E-1,2.1478207E-1,6.0317034E-1,-1.2349273E-1,1.292247E0,1.8965517E-1,-2.4393006E-1,1.030681E0,-1.7505236E0,1.5407485E0,1.8965517E-1,-5.534584E-1,8.1324744E-1,-1.5095004E-1,1.4181185E0,4.7293816E0,-8.119583E-1,1.5601082E0,4.678161E-1,-1.373093E-1,3.2873562E-1,-1.096953E-1,1.1883831E0,-1.5283366E-1,-4.8841318E-1,-9.395019E-2,4.9945942E-1,-1.580513E-1,2.0952381E-1,4.6149558E-1,-7.511296E-2,1.357033E0,-1.02803744E-1,-1.0645162E-1,4.2580646E-1,1.0280374E0,5.057471E-2],"split_indices":[85,5,63,68,73,69,43,113,85,0,57,100,51,0,60,108,85,0,0,0,7,56,18,0,0,8,61,0,0,95,15,0,0,0,0,0,95,0,35,0,98,0,0,0,0,0,0,0,0,0,0],"split_type":[0,0,0,0,0,0,0,0,0,0,0,0,0,0,0,0,0,0,0,0,0,0,0,0,0,0,0,0,0,0,0,0,0,0,0,0,0,0,0,0,0,0,0,0,0,0,0,0,0,0,0],"sum_hessian":[1.1123967E3,1.038347E3,7.404958E1,1.0145454E3,2.3801653E1,5.123967E1,2.2809917E1,1.00628094E3,8.264462E0,4.132231E0,1.966942E1,1.9504131E1,3.1735537E1,2.479339E0,2.0330578E1,1.6859505E1,9.8942145E2,2.9752066E0,5.289256E0,1.1570247E0,1.8512396E1,6.115702E0,1.338843E1,3.0578512E1,1.1570247E0,1.6198347E1,4.132231E0,1.0743801E1,6.115702E0,7.593388E2,2.3008264E2,1.7355371E1,1.1570247E0,4.958678E0,1.1570247E0,1.983471E0,1.1404959E1,1.2561983E1,3.6363635E0,1.322314E0,2.8099172E0,7.566942E2,2.644628E0,3.9008263E1,1.9107437E2,9.752066E0,1.6528926E0,1.8181818E0,1.8181818E0,1.6528926E0,1.1570247E0],"tree_param":{"num_deleted":"0","num_feature":"120","num_nodes":"51","size_leaf_vector":"1"}},{"base_weights":[-1.6419864E-1,1.6936352E0,-4.7100356E-1,2.9610934E0,1.6034617E-1,2.7265087E-1,-5.193329E-1,3.6709797E0,-1.1100435E-1,2.306826E0,-2.499666E-1,2.0992365E0,-1.8519157E-1,1.3492723E0,-5.270489E-1,1.9920022E0,4.7320833E0,7.455149E-1,-1.5449764E-1,3.635494E0,-2.379368E-1,1.7959183E0,-3.717358E-1,-6.864277E-2,3.3322475E0,8.401575E-1,-3.85722E-1,-1.0645162E-1,8.850575E-1,-2.3760547E-1,-5.4001415E-1,1.7446467E-1,2.8606522E0,-9.867111E-2,4.924509E0,5.057471E-2,1.2647941E0,-1.2169198E-1,5.057471E-2,8.6611295E-1,-8.850576E-2,-4.3711725E-1,4.678161E-1,1.8965517E-1,-1.2514971E-1,3.523131E-2,1.1968462E0,-4.926594E-1,5.0431895E-1,-4.318816E-1,8.0186915E-1,-1.4514612E-1,-5.434586E-1,-1.4422478E-1,4.8598576E-1,-1.197279E-1,1.0186183E0,-8.850576E-2,1.5252447E0,3.4953272E-1,-1.5142943E-1,-1.6105515E-1,4.4897955E-2,4.678161E-1,-1.6058394E-1,2.6312292E-1,-1.4233826E-1,-9.383888E-2,-1.6443995E-1],"categories":[],"categories_nodes":[],"categories_segments":[],"categories_sizes":[],"default_left":[0,0,0,0,0,0,0,0,0,0,0,0,0,0,0,0,0,0,0,0,0,0,0,0,0,0,0,0,0,0,0,0,0,0,0,0,0,0,0,0,0,0,0,0,0,0,0,0,0,0,0,0,0,0,0,0,0,0,0,0,0,0,0,0,0,0,0,0,0],"id":4,"left_children":[1,3,5,7,9,11,13,15,17,19,21,23,25,27,29,31,33,-1,-1,35,37,39,41,43,45,-1,47,-1,-1,49,51,53,55,-1,57,-1,-1,-1,-1,-1,-1,59,-1,-1,-1,-1,-1,61,-1,63,-1,65,67,-1,-1,-1,-1,-1,-1,-1,-1,-1,-1,-1,-1,-1,-1,-1,-1],"loss_changes":[6.3542554E2,3.066274E2,3.45139E1,1.8895105E2,6.449129E1,4.97436E1,1.3663773E1,1.1573999E2,1.9316963E1,4.0572514E1,1.6070168E1,3.2061966E1,2.9883448E1,1.1891779E1,3.2317657E0,4.518186E1,4.2835754E1,0E0,0E0,1.494014E1,4.0700272E-1,9.166858E0,8.153906E0,1.5576668E0,1.5613976E1,0E0,1.098582E1,0E0,0E0,2.3870153E1,1.0856781E0,1.0649021E1,3.53676E1,0E0,3.552533E1,0E0,0E0,0E0,0E0,0E0,0E0,6.8772125E0,0E0,0E0,0E0,0E0,0E0,1.3426456E0,0E0,8.765868E0,0E0,3.3679364E0,7.433624E-1,0E0,0E0,0E0,0E0,0E0,0E0,0E0,0E0,0E0,0E0,0E0,0E0,0E0,0E0,0E0,0E0],"parents":[2147483647,0,0,1,1,2,2,3,3,4,4,5,5,6,6,7,7,8,8,9,9,10,10,11,11,12,12,13,13,14,14,15,15,16,16,19,19,20,20,21,21,22,22,23,23,24,24,26,26,29,29,30,30,31,31,32,32,34,34,41,41,47,47,49,49,51,51,52,52],"right_children":[2,4,6,8,10,12,14,16,18,20,22,24,26,28,30,32,34,-1,-1,36,38,40,42,44,46,-1,48,-1,-1,50,52,54,56,-1,58,-1,-1,-1,-1,-1,-1,60,-1,-1,-1,-1,-1,62,-1,64,-1,66,68,-1,-1,-1,-1,-1,-1,-1,-1,-1,-1,-1,-1,-1,-1,-1,-1],"split_conditions":[-8.5433984E-1,-3.400515E-1,-9.100733E-1,3.1803676E-1,-1.0325475E0,-1.2458087E0,-1.3668522E0,1.0331254E0,-9.312862E-1,5.3998E-2,-5.278682E-1,-4.1725025E-1,-1.4746877E0,-4.6639505E-1,-1.439424E0,-7.230643E-1,-1.8542765E0,7.455149E-1,-1.5449764E-1,-1.0277355E0,-3.0518912E-2,-8.489731E-1,1.1153501E0,-1.3179994E0,-1.3051401E0,8.401575E-1,1.1796331E0,-1.0645162E-1,8.850575E-1,1.1994538E0,-1.9189156E0,2.0349454E-2,-1.78905E0,-9.867111E-2,-1.0855011E0,5.057471E-2,1.2647941E0,-1.2169198E-1,5.057471E-2,8.6611295E-1,-8.850576E-2,-6.379374E-1,4.678161E-1,1.8965517E-1,-1.2514971E-1,3.523131E-2,1.1968462E0,-4.5930812E-1,5.0431895E-1,-1.3516335E0,8.0186915E-1,-1.6072409E-1,-2.0578933E0,-1.4422478E-1,4.8598576E-1,-1.197279E-1,1.0186183E0,-8.850576E-2,1.5252447E0,3.4953272E-1,-1.5142943E-1,-1.6105515E-1,4.4897955E-2,4.678161E-1,-1.6058394E-1,2.6312292E-1,-1.4233826E-1,-9.383888E-2,-1.6443995E-1],"split_indices":[6,67,115,65,54,17,95,8,61,116,3,57,54,63,70,19,77,0,0,33,0,80,32,5,73,0,105,0,0,45,89,109,65,0,32,0,0,0,0,0,0,59,0,0,0,0,0,99,0,105,0,114,77,0,0,0,0,0,0,0,0,0,0,0,0,0,0,0,0],"split_type":[0,0,0,0,0,0,0,0,0,0,0,0,0,0,0,0,0,0,0,0,0,0,0,0,0,0,0,0,0,0,0,0,0,0,0,0,0,0,0,0,0,0,0,0,0,0,0,0,0,0,0,0,0,0,0,0,0,0,0,0,0,0,0,0,0,0,0,0,0],"sum_hessian":[1.1123967E3,1.570248E2,9.553719E2,8.5454544E1,7.1570244E1,5.801653E1,8.9735535E2,6.9256195E1,1.6198347E1,1.0743801E1,6.0826447E1,1.0909091E1,4.7107437E1,2.9752066E0,8.943801E2,2.7933884E1,4.132231E1,1.4876033E0,1.4710744E1,6.7768593E0,3.966942E0,2.644628E0,5.8181816E1,4.2975206E0,6.6115704E0,2.1487603E0,4.4958675E1,1.8181818E0,1.1570247E0,3.9173553E1,8.552066E2,9.421488E0,1.8512396E1,1.4876033E0,3.983471E1,1.1570247E0,5.6198344E0,2.8099172E0,1.1570247E0,1.4876033E0,1.1570247E0,5.702479E1,1.1570247E0,1.1570247E0,3.1404958E0,1.322314E0,5.289256E0,4.3471073E1,1.4876033E0,3.752066E1,1.6528926E0,7.7685947E0,8.47438E2,6.9421487E0,2.479339E0,2.644628E0,1.5867768E1,1.1570247E0,3.8677685E1,1.6528926E0,5.53719E1,4.0826447E1,2.644628E0,1.1570247E0,3.6363636E1,1.4876033E0,6.2809916E0,1.8181818E1,8.2925616E2],"tree_param":{"num_deleted":"0","num_feature":"120","num_nodes":"69","size_leaf_vector":"1"}},{"base_weights":[6.8422854E-2,1.1331111E0,-1.3262463E-2,2.052743E0,2.3755245E-1,-9.6045956E-2,1.0571047E0,-7.066384E-2,2.845103E0,1.2248393E0,-1.4189737E-1,9.8664545E-2,-3.0254334E-1,2.0315413E0,-1.778976E-1,-1.4916734E-1,6.068966E-1,3.506479E0,3.7049937E-1,-3.0354798E-1,2.5584757E0,-3.801296E-1,1.171381E0,-1.22926384E-1,6.653041E-1,-3.3445337E-1,6.5609884E-1,7.537239E-1,3.719757E0,5.7570094E-1,-3.457872E-1,-1.0645162E-1,3.8661828E0,6.8113875E-1,-1.3651927E-1,-1.3285026E-1,5.057471E-2,3.3860233E0,-9.395019E-2,-4.8791793E-1,2.1290323E-1,6.496063E-1,-1.0645162E-1,1.9411764E0,-2.0071362E-1,-3.7531555E-2,1.1191891E0,-3.900044E-1,6.289397E-2,-1.5133964E-1,2.3793676E0,-8.948289E-2,1.710767E0,4.13151E0,9.141274E-2,-4.3517777E-1,3.2873562E-1,1.2336448E-1,1.2441912E0,1.1381779E0,3.2873562E-1,5.057471E-2,-1.5807013E-1,-2.5081443E-2,1.2084508E0,-8.0105506E-2,3.6666667E-1,1.3054277E-1,-1.3929465E-1,2.6684629E-2,5.294874E-1,-3.228964E-2,-1.2785651E-1,-6.457927E-2,3.72218E-1,2.935943E-1,-1.1891893E-1,-8.850576E-2,9.806942E-1,-1.0570149E-1,4.227758E-1,4.251207E-2,7.6319224E-1,1.3368828E0,3.1935483E-1,1.8965517E-1,-1.4937519E-1],"categories":[],"categories_nodes":[],"categories_segments":[],"categories_sizes":[],"default_left":[0,0,0,0,0,0,0,0,0,0,0,0,0,0,0,0,0,0,0,0,0,0,0,0,0,0,0,0,0,0,0,0,0,0,0,0,0,0,0,0,0,0,0,0,0,0,0,0,0,0,0,0,0,0,0,0,0,0,0,0,0,0,0,0,0,0,0,0,0,0,0,0,0,0,0,0,0,0,0,0,0,0,0,0,0,0,0],"id":5,"left_children":[1,3,5,7,9,11,13,15,17,19,21,23,25,27,29,-1,-1,31,33,35,37,39,41,43,45,47,49,51,53,-1,55,-1,57,-1,-1,-1,-1,59,-1,61,-1,-1,-1,63,65,67,69,71,73,75,77,79,81,83,-1,85,-1,-1,-1,-1,-1,-1,-1,-1,-1,-1,-1,-1,-1,-1,-1,-1,-1,-1,-1,-1,-1,-1,-1,-1,-1,-1,-1,-1,-1,-1,-1],"loss_changes":[9.684646E1,6.486141E1,9.1815956E1,6.584645E1,1.5657305E1,3.8695564E1,8.988278E1,1.1346296E1,4.524376E1,2.437725E1,1.006653E1,6.2324318E1,1.4503586E1,8.706909E1,1.2537178E1,0E0,0E0,3.2376038E1,1.2194473E1,4.8824316E-1,1.6006317E1,3.492671E0,8.3033085E0,5.7741684E1,4.454737E1,1.0014137E1,2.176057E1,2.030104E1,2.3621872E1,0E0,4.6100636E0,0E0,1.8209442E1,0E0,0E0,0E0,0E0,4.8275757E-1,0E0,7.2778034E-1,0E0,0E0,0E0,5.5550293E1,3.2888683E1,1.1440557E1,5.62613E1,4.012436E0,1.873586E1,3.54838E0,1.2781607E1,6.0997496E0,1.4992775E1,1.0904999E1,0E0,2.3851776E0,0E0,0E0,0E0,0E0,0E0,0E0,0E0,0E0,0E0,0E0,0E0,0E0,0E0,0E0,0E0,0E0,0E0,0E0,0E0,0E0,0E0,0E0,0E0,0E0,0E0,0E0,0E0,0E0,0E0,0E0,0E0],"parents":[2147483647,0,0,1,1,2,2,3,3,4,4,5,5,6,6,7,7,8,8,9,9,10,10,11,11,12,12,13,13,14,14,17,17,18,18,19,19,20,20,21,21,22,22,23,23,24,24,25,25,26,26,27,27,28,28,30,30,32,32,37,37,39,39,43,43,44,44,45,45,46,46,47,47,48,48,49,49,50,50,51,51,52,52,53,53,55,55],"right_children":[2,4,6,8,10,12,14,16,18,20,22,24,26,28,30,-1,-1,32,34,36,38,40,42,44,46,48,50,52,54,-1,56,-1,58,-1,-1,-1,-1,60,-1,62,-1,-1,-1,64,66,68,70,72,74,76,78,80,82,84,-1,86,-1,-1,-1,-1,-1,-1,-1,-1,-1,-1,-1,-1,-1,-1,-1,-1,-1,-1,-1,-1,-1,-1,-1,-1,-1,-1,-1,-1,-1,-1,-1],"split_conditions":[-1.4705403E0,-1.4548887E0,1.4254383E0,-8.1315815E-1,-1.9243865E-1,-1.7292318E-1,2.2165287E-1,-2.843575E-1,1.0254303E0,-3.363403E-2,1.0508853E-1,-3.5395253E-2,1.9826334E0,1.3833678E-1,-1.1683496E0,-1.4916734E-1,6.068966E-1,-1.2544905E0,-4.5329392E-1,4.085092E-1,4.5530817E-1,1.8326248E0,-4.6473786E-1,-1.6174448E0,-4.0813357E-1,9.151357E-1,6.0360634E-1,6.7847795E-3,1.5224038E0,5.7570094E-1,1.3670762E0,-1.0645162E-1,-1.3525647E0,6.8113875E-1,-1.3651927E-1,-1.3285026E-1,5.057471E-2,-4.055807E-1,-9.395019E-2,-4.873024E-1,2.1290323E-1,6.496063E-1,-1.0645162E-1,-4.2681664E-1,8.9778185E-1,1.4429472E-1,-2.3550837E-1,-1.0992656E0,5.838984E-1,-6.3670415E-1,-2.4764165E-1,1.3800727E0,3.1670985E-1,1.1904846E0,9.141274E-2,2.6745036E-1,3.2873562E-1,1.2336448E-1,1.2441912E0,1.1381779E0,3.2873562E-1,5.057471E-2,-1.5807013E-1,-2.5081443E-2,1.2084508E0,-8.0105506E-2,3.6666667E-1,1.3054277E-1,-1.3929465E-1,2.6684629E-2,5.294874E-1,-3.228964E-2,-1.2785651E-1,-6.457927E-2,3.72218E-1,2.935943E-1,-1.1891893E-1,-8.850576E-2,9.806942E-1,-1.0570149E-1,4.227758E-1,4.251207E-2,7.6319224E-1,1.3368828E0,3.1935483E-1,1.8965517E-1,-1.4937519E-1],"split_indices":[52,53,62,115,83,51,115,66,110,105,64,11,105,5,30,0,0,82,15,5,41,26,9,61,117,119,59,89,81,0,57,0,13,0,0,0,0,8,0,7,0,0,0,115,63,114,62,53,65,77,85,105,11,53,0,6,0,0,0,0,0,0,0,0,0,0,0,0,0,0,0,0,0,0,0,0,0,0,0,0,0,0,0,0,0,0,0],"split_type":[0,0,0,0,0,0,0,0,0,0,0,0,0,0,0,0,0,0,0,0,0,0,0,0,0,0,0,0,0,0,0,0,0,0,0,0,0,0,0,0,0,0,0,0,0,0,0,0,0,0,0,0,0,0,0,0,0,0,0,0,0,0,0,0,0,0,0,0,0,0,0,0,0,0,0,0,0,0,0,0,0,0,0,0,0,0,0],"sum_hessian":[1.1123967E3,7.834711E1,1.0340496E3,3.801653E1,4.0330578E1,9.6066113E2,7.338843E1,1.0578512E1,2.7438017E1,1.0578512E1,2.9752066E1,4.9471072E2,4.659504E2,4.0661156E1,3.2727272E1,9.421488E0,1.1570247E0,2.1322313E1,6.115702E0,5.289256E0,5.289256E0,2.5785124E1,3.966942E0,3.5619833E2,1.3851239E2,4.5157025E2,1.4380165E1,2.3966942E1,1.6694214E1,1.6528926E0,3.1074379E1,1.8181818E0,1.9504131E1,1.322314E0,4.7933884E0,4.132231E0,1.1570247E0,3.966942E0,1.322314E0,2.3966942E1,1.8181818E0,2.1487603E0,1.8181818E0,1.2066115E1,3.4413223E2,5.4710743E1,8.380165E1,3.9619833E2,5.53719E1,1.0413223E1,3.966942E0,1.3223141E1,1.0743801E1,1.4710744E1,1.983471E0,2.9917355E1,1.1570247E0,1.6528926E0,1.785124E1,2.8099172E0,1.1570247E0,1.1570247E0,2.2809917E1,6.6115704E0,5.4545455E0,3.2958676E2,1.4545454E1,2.5950413E1,2.876033E1,3.2727272E1,5.107438E1,4.5454544E1,3.507438E2,4.5454544E1,9.917356E0,1.322314E0,9.090909E0,1.1570247E0,2.8099172E0,1.1900826E1,1.322314E0,4.132231E0,6.6115704E0,1.2892562E1,1.8181818E0,1.1570247E0,2.876033E1],"tree_param":{"num_deleted":"0","num_feature":"120","num_nodes":"87","size_leaf_vector":"1"}},{"base_weights":[-5.5522185E-2,-2.3462206E-1,2.777085E0,9.293927E-1,-3.530091E-1,-3.1221482E-8,3.9769683E0,6.943564E-2,2.6292818E0,3.402219E0,-3.76262E-1,1.3812405E0,-4.562719E-1,4.647887E-1,4.4347296E0,-2.2912997E-1,1.0993892E0,4.1590614E0,4.4974443E-1,-8.850576E-2,1.3063684E0,1.0582573E-1,-4.8117188E-1,-1.4316705E-1,9.149533E-1,5.057471E-2,-1.542719E-1,-2.4798714E-1,5.519573E-1,4.689215E0,-1.096953E-1,1.25273E0,-3.903164E-1,-2.697548E-1,2.773447E0,4.8114796E0,-1.1521198E-1,-2.2967938E-1,2.0332716E0,-1.9666272E-1,1.115942E0,-4.953771E-1,1.3372351E-1,-1.02803744E-1,5.057471E-2,-1.2349273E-1,5.057471E-2,1.0645161E-1,4.8924346E0,-1.175772E-1,8.516129E-1,1.1442441E-1,-1.4692444E-1,-1.4422478E-1,1.8965517E-1,1.1366057E0,-6.345011E-9,1.5052632E0,3.2873562E-1,3.2873562E-1,-1.4837636E-1,9.354331E-1,-9.395019E-2,5.930117E-1,-8.388204E-2,6.899625E-1,-2.5272079E-2,4.90967E-2,-1.504555E-1,-9.2644595E-2,4.5294118E-1,1.5113863E0,1.644128E-1],"categories":[],"categories_nodes":[],"categories_segments":[],"categories_sizes":[],"default_left":[0,0,0,0,0,0,0,0,0,0,0,0,0,0,0,0,0,0,0,0,0,0,0,0,0,0,0,0,0,0,0,0,0,0,0,0,0,0,0,0,0,0,0,0,0,0,0,0,0,0,0,0,0,0,0,0,0,0,0,0,0,0,0,0,0,0,0,0,0,0,0,0,0],"id":6,"left_children":[1,3,5,7,9,11,13,15,17,19,21,23,25,27,29,31,33,35,37,-1,-1,39,41,43,-1,-1,-1,45,-1,47,-1,49,51,53,55,57,-1,59,61,63,65,67,69,-1,-1,-1,-1,-1,71,-1,-1,-1,-1,-1,-1,-1,-1,-1,-1,-1,-1,-1,-1,-1,-1,-1,-1,-1,-1,-1,-1,-1,-1],"loss_changes":[5.654995E2,1.4476178E2,2.2088754E2,1.4166342E2,8.4415184E1,1.3864865E1,7.2359924E1,2.0382286E1,1.0672557E2,2.2265396E1,4.795201E1,1.4332014E1,6.856921E-1,6.7824636E0,5.1599304E1,1.2808784E1,3.486335E1,5.821283E1,1.6125147E1,0E0,0E0,5.2190487E1,6.862076E0,2.9473802E-1,0E0,0E0,0E0,4.192794E-1,0E0,3.248529E1,0E0,1.4930546E1,3.8148837E0,2.0355315E0,1.9104946E1,7.2904663E0,0E0,4.4333763E0,1.2357641E1,2.4301888E1,5.6103436E1,3.1607208E0,1.1644103E1,0E0,0E0,0E0,0E0,0E0,2.0651123E1,0E0,0E0,0E0,0E0,0E0,0E0,0E0,0E0,0E0,0E0,0E0,0E0,0E0,0E0,0E0,0E0,0E0,0E0,0E0,0E0,0E0,0E0,0E0,0E0],"parents":[2147483647,0,0,1,1,2,2,3,3,4,4,5,5,6,6,7,7,8,8,9,9,10,10,11,11,12,12,13,13,14,14,15,15,16,16,17,17,18,18,21,21,22,22,23,23,27,27,29,29,31,31,32,32,33,33,34,34,35,35,37,37,38,38,39,39,40,40,41,41,42,42,48,48],"right_children":[2,4,6,8,10,12,14,16,18,20,22,24,26,28,30,32,34,36,38,-1,-1,40,42,44,-1,-1,-1,46,-1,48,-1,50,52,54,56,58,-1,60,62,64,66,68,70,-1,-1,-1,-1,-1,72,-1,-1,-1,-1,-1,-1,-1,-1,-1,-1,-1,-1,-1,-1,-1,-1,-1,-1,-1,-1,-1,-1,-1,-1],"split_conditions":[1.5549419E0,-1.2046802E0,-5.3706225E-2,6.113028E-1,-2.7468688E0,-2.9397374E-1,-4.4210035E-2,5.902674E-1,-5.571038E-1,-3.0608562E-1,-4.7121978E-1,4.659651E-1,-6.5375906E-1,2.498796E0,6.509673E-1,-1.9128557E0,6.67406E-2,1.0657973E0,3.9913774E-1,-8.850576E-2,1.3063684E0,2.1622501E-1,1.2035913E0,-9.7265966E-2,9.149533E-1,5.057471E-2,-1.542719E-1,-8.214086E-2,5.519573E-1,-6.946458E-2,-1.096953E-1,8.982687E-1,-1.792722E0,1.6106534E0,-2.656173E-1,7.309173E-1,-1.1521198E-1,-7.437037E-1,1.0811343E-1,-2.6830578E0,-1.03712685E-1,-1.8727545E0,1.5035272E0,-1.02803744E-1,5.057471E-2,-1.2349273E-1,5.057471E-2,1.0645161E-1,1.2101157E0,-1.175772E-1,8.516129E-1,1.1442441E-1,-1.4692444E-1,-1.4422478E-1,1.8965517E-1,1.1366057E0,-6.345011E-9,1.5052632E0,3.2873562E-1,3.2873562E-1,-1.4837636E-1,9.354331E-1,-9.395019E-2,5.930117E-1,-8.388204E-2,6.899625E-1,-2.5272079E-2,4.90967E-2,-1.504555E-1,-9.2644595E-2,4.5294118E-1,1.5113863E0,1.644128E-1],"split_indices":[51,25,108,3,61,97,3,49,64,3,5,3,7,43,61,62,3,55,49,0,0,54,51,0,0,0,0,0,0,113,0,116,24,9,84,86,0,105,65,81,25,73,31,0,0,0,0,0,117,0,0,0,0,0,0,0,0,0,0,0,0,0,0,0,0,0,0,0,0,0,0,0,0],"split_type":[0,0,0,0,0,0,0,0,0,0,0,0,0,0,0,0,0,0,0,0,0,0,0,0,0,0,0,0,0,0,0,0,0,0,0,0,0,0,0,0,0,0,0,0,0,0,0,0,0,0,0,0,0,0,0,0,0,0,0,0,0,0,0,0,0,0,0,0,0,0,0,0,0],"sum_hessian":[1.1123967E3,1.0471074E3,6.528925E1,9.603306E1,9.5107434E2,2E1,4.5289257E1,6.446281E1,3.1570248E1,4.958678E0,9.4611566E2,4.46281E0,1.55371895E1,5.4545455E0,3.983471E1,5.057851E1,1.3884297E1,1.801653E1,1.3553719E1,1.1570247E0,3.801653E0,1.6909091E2,7.770248E2,2.8099172E0,1.6528926E0,1.1570247E0,1.4380165E1,4.132231E0,1.322314E0,3.785124E1,1.983471E0,4.2975206E0,4.628099E1,8.099174E0,5.785124E0,1.5702479E1,2.3140495E0,1.0082644E1,3.4710743E0,1.307438E2,3.8347107E1,7.5966943E2,1.7355371E1,1.6528926E0,1.1570247E0,2.9752066E0,1.1570247E0,1.8181818E0,3.603306E1,2.479339E0,1.8181818E0,4.958678E0,4.132231E1,6.9421487E0,1.1570247E0,3.966942E0,1.8181818E0,1.4545454E1,1.1570247E0,1.1570247E0,8.92562E0,2.1487603E0,1.322314E0,3.966942E0,1.26776855E2,1.8842976E1,1.9504131E1,6.7768593E0,7.528925E2,1.3719008E1,3.6363635E0,3.4710743E1,1.322314E0],"tree_param":{"num_deleted":"0","num_feature":"120","num_nodes":"73","size_leaf_vector":"1"}},{"base_weights":[-8.7855674E-2,-3.848633E-1,1.073923E0,-4.657896E-1,3.7189922E-1,-3.442256E-2,2.1648724E0,-5.3268874E-1,-2.5293294E-1,-4.2219E-1,1.4907131E0,-4.5484847E-1,9.138699E-1,5.8530575E-1,3.095611E0,-5.390594E-1,-1.6256161E-1,-4.5902005E-1,4.2284784E-1,4.3137252E-1,-4.964416E-1,-1.423472E-1,3.0432842E0,2.935943E-1,-4.9168524E-1,-9.7483195E-2,2.670724E0,1.4610276E0,-4.2857146E-1,3.953705E0,8.8221616E-1,-5.407092E-1,3.523131E-2,2.6850393E-1,-1.4780363E-1,-5.0910425E-1,5.1133033E-2,-1.3092124E-1,1.9801506E0,-1.175772E-1,4.678161E-1,-1.6126196E-1,2.0332692E-2,1.1386322E0,-1.5403627E-1,-1.2205273E-1,4.209628E0,7.795275E-2,-5.163926E-1,1.4316702E0,-3.768642E-1,3.365539E-1,3.732328E0,2.917348E0,5.146198E-1,-1.5624729E-1,7.795275E-2,4.6596062E-1,4.2753034E0,-3.1642696E-1,1.9514843E0,-1.6319773E-1,-6.2264163E-2,-1.5914184E-1,8.906875E-3,3.347826E-1,-1.4864866E-1,1.2826207E-1,-1.5708053E-1,-1.2809613E-1,9.002882E-1,1.8965517E-1,-1.1521198E-1,-1.0645162E-1,6.887851E-1,-1.3063684E-1,1.8965517E-1,1.644128E-1,1.3681296E0,2.7442822E-2,-1.6273667E-1,-9.867111E-2,8.1032026E-1,1.8965517E-1,-1.4096542E-1,4.678161E-1,-1.2349273E-1,1.2755702E0,5.057471E-2,1.1061044E0,-1.02803744E-1,4.668516E-1,-3.6065582E-2,5.519573E-1,-1.2514971E-1,1.3509166E0,-2.4688287E-2,-1.4809485E-1,1.8965517E-1,9.3781215E-1,2.9954607E-2],"categories":[],"categories_nodes":[],"categories_segments":[],"categories_sizes":[],"default_left":[0,0,0,0,0,0,0,0,0,0,0,0,0,0,0,0,0,0,0,0,0,0,0,0,0,0,0,0,0,0,0,0,0,0,0,0,0,0,0,0,0,0,0,0,0,0,0,0,0,0,0,0,0,0,0,0,0,0,0,0,0,0,0,0,0,0,0,0,0,0,0,0,0,0,0,0,0,0,0,0,0,0,0,0,0,0,0,0,0,0,0,0,0,0,0,0,0,0,0,0,0],"id":7,"left_children":[1,3,5,7,9,11,13,15,17,19,21,23,25,27,29,31,33,35,37,39,41,43,45,-1,47,49,51,53,55,57,59,61,-1,-1,-1,63,65,67,69,-1,-1,-1,71,73,-1,75,77,-1,79,81,83,85,87,89,91,-1,-1,93,95,97,99,-1,-1,-1,-1,-1,-1,-1,-1,-1,-1,-1,-1,-1,-1,-1,-1,-1,-1,-1,-1,-1,-1,-1,-1,-1,-1,-1,-1,-1,-1,-1,-1,-1,-1,-1,-1,-1,-1,-1,-1],"loss_changes":[3.8459872E2,5.4522217E1,2.7449136E2,1.1287918E1,7.729202E1,4.569133E1,1.6635791E2,1.3493805E0,2.7174438E1,3.462164E0,9.181387E1,4.671137E0,6.2830124E1,3.9377098E1,1.3277496E2,7.119293E-1,4.540992E0,3.8313828E0,3.9750824E1,4.9169073E0,1.0221272E0,9.388994E0,6.8889694E1,0E0,1.5829659E0,1.049969E1,3.071167E1,3.1087418E1,1.469002E0,5.567572E1,2.7956287E1,5.405121E-1,0E0,0E0,0E0,1.5782166E0,8.831594E0,7.837633E0,3.0950897E1,0E0,0E0,0E0,1.3489984E0,8.542588E0,0E0,1.6838024E0,1.4921051E1,0E0,1.2517147E0,9.403049E0,2.2216148E0,5.3374867E0,1.5519325E1,2.4094505E1,1.0466003E1,0E0,0E0,7.3956866E0,4.696643E1,2.1474504E0,2.4509914E1,0E0,0E0,0E0,0E0,0E0,0E0,0E0,0E0,0E0,0E0,0E0,0E0,0E0,0E0,0E0,0E0,0E0,0E0,0E0,0E0,0E0,0E0,0E0,0E0,0E0,0E0,0E0,0E0,0E0,0E0,0E0,0E0,0E0,0E0,0E0,0E0,0E0,0E0,0E0,0E0],"parents":[2147483647,0,0,1,1,2,2,3,3,4,4,5,5,6,6,7,7,8,8,9,9,10,10,11,11,12,12,13,13,14,14,15,15,16,16,17,17,18,18,19,19,20,20,21,21,22,22,24,24,25,25,26,26,27,27,28,28,29,29,30,30,31,31,35,35,36,36,37,37,38,38,42,42,43,43,45,45,46,46,48,48,49,49,50,50,51,51,52,52,53,53,54,54,57,57,58,58,59,59,60,60],"right_children":[2,4,6,8,10,12,14,16,18,20,22,24,26,28,30,32,34,36,38,40,42,44,46,-1,48,50,52,54,56,58,60,62,-1,-1,-1,64,66,68,70,-1,-1,-1,72,74,-1,76,78,-1,80,82,84,86,88,90,92,-1,-1,94,96,98,100,-1,-1,-1,-1,-1,-1,-1,-1,-1,-1,-1,-1,-1,-1,-1,-1,-1,-1,-1,-1,-1,-1,-1,-1,-1,-1,-1,-1,-1,-1,-1,-1,-1,-1,-1,-1,-1,-1,-1,-1],"split_conditions":[7.904894E-1,1.1911621E0,2.7757493E-1,4.3433174E-1,2.5375047E-1,4.677093E-1,1.156026E-1,1.9412099E0,5.93482E-1,-2.0454865E0,3.3448834E-2,-2.7013292E0,6.8097943E-1,2.1692233E-1,1.4846465E-2,2.5958147E0,-2.3418625E-1,1.0666537E0,9.478502E-1,5.3930545E-1,1.4300177E-1,-1.4956039E-1,2.603142E-1,2.935943E-1,-1.2039639E0,-9.12866E-1,-2.0157356E-2,-8.3149755E-1,1.5803148E0,2.5017834E-1,-3.3347372E-2,1.9379909E0,3.523131E-2,2.6850393E-1,-1.4780363E-1,8.345777E-1,-3.4913987E-1,-4.5010313E-2,-3.436868E-1,-1.175772E-1,4.678161E-1,-1.6126196E-1,-9.82516E-2,3.232389E-1,-1.5403627E-1,7.440511E-1,-4.3085486E-1,7.795275E-2,-1.0453556E0,2.9512683E-1,5.0994354E-1,-9.559784E-1,2.1692233E-1,6.130816E-1,-5.9290724E-3,-1.5624729E-1,7.795275E-2,-6.103596E-1,1.495789E0,-6.395062E-2,-7.228344E-2,-1.6319773E-1,-6.2264163E-2,-1.5914184E-1,8.906875E-3,3.347826E-1,-1.4864866E-1,1.2826207E-1,-1.5708053E-1,-1.2809613E-1,9.002882E-1,1.8965517E-1,-1.1521198E-1,-1.0645162E-1,6.887851E-1,-1.3063684E-1,1.8965517E-1,1.644128E-1,1.3681296E0,2.7442822E-2,-1.6273667E-1,-9.867111E-2,8.1032026E-1,1.8965517E-1,-1.4096542E-1,4.678161E-1,-1.2349273E-1,1.2755702E0,5.057471E-2,1.1061044E0,-1.02803744E-1,4.668516E-1,-3.6065582E-2,5.519573E-1,-1.2514971E-1,1.3509166E0,-2.4688287E-2,-1.4809485E-1,1.8965517E-1,9.3781215E-1,2.9954607E-2],"split_indices":[90,78,33,62,61,60,91,91,33,80,115,36,82,117,107,18,119,53,14,22,61,112,33,0,38,117,26,100,115,69,115,25,0,0,0,86,85,117,68,0,0,0,0,29,0,3,49,0,117,5,60,38,117,99,17,0,0,100,77,1,0,0,0,0,0,0,0,0,0,0,0,0,0,0,0,0,0,0,0,0,0,0,0,0,0,0,0,0,0,0,0,0,0,0,0,0,0,0,0,0,0],"split_type":[0,0,0,0,0,0,0,0,0,0,0,0,0,0,0,0,0,0,0,0,0,0,0,0,0,0,0,0,0,0,0,0,0,0,0,0,0,0,0,0,0,0,0,0,0,0,0,0,0,0,0,0,0,0,0,0,0,0,0,0,0,0,0,0,0,0,0,0,0,0,0,0,0,0,0,0,0,0,0,0,0,0,0,0,0,0,0,0,0,0,0,0,0,0,0,0,0,0,0,0,0],"sum_hessian":[1.1123967E3,8.864463E2,2.2595041E2,8.01157E2,8.528925E1,1.1256198E2,1.1338843E2,6.0842975E2,1.9272726E2,5.0247932E1,3.504132E1,7.834711E1,3.4214874E1,4.2644627E1,7.07438E1,5.976859E2,1.0743801E1,1.4793388E2,4.479339E1,3.6363635E0,4.661157E1,1.752066E1,1.752066E1,1.322314E0,7.7024796E1,2.2314049E1,1.1900826E1,2.2644629E1,2E1,5.0413223E1,2.0330578E1,5.9636365E2,1.322314E0,2.1487603E0,8.595041E0,1.3471074E2,1.3223141E1,3.371901E1,1.107438E1,2.479339E0,1.1570247E0,4.3140495E1,3.4710743E0,3.4710743E0,1.4049586E1,4.958678E0,1.2561983E1,2.1487603E0,7.487603E1,2.8099172E0,1.9504131E1,4.132231E0,7.7685947E0,8.099174E0,1.4545454E1,1.785124E1,2.1487603E0,4.46281E0,4.5950413E1,9.917356E0,1.0413223E1,5.8991736E2,6.446281E0,1.2958678E2,5.1239667E0,4.132231E0,9.090909E0,1.3884297E1,1.9834711E1,3.4710743E0,7.603306E0,1.1570247E0,2.3140495E0,1.8181818E0,1.6528926E0,3.801653E0,1.1570247E0,1.322314E0,1.1239669E1,2.9752066E0,7.1900826E1,1.4876033E0,1.322314E0,1.1570247E0,1.8347107E1,1.1570247E0,2.9752066E0,6.6115704E0,1.1570247E0,6.446281E0,1.6528926E0,4.958678E0,9.586777E0,1.322314E0,3.1404958E0,4.3636364E1,2.3140495E0,8.76033E0,1.1570247E0,5.950413E0,4.46281E0],"tree_param":{"num_deleted":"0","num_feature":"120","num_nodes":"101","size_leaf_vector":"1"}},{"base_weights":[1.75303E-1,6.4106214E-1,-2.1813162E-1,2.1809871E-1,1.9070655E0,-2.5747567E-1,2.536023E0,7.83829E-1,-1.3730292E-1,8.6480296E-1,4.011612E0,-2.8380716E-1,1.3832902E0,1.2930408E0,-1.2514971E-1,-1.7610234E-1,2.3343534E0,1.0911865E0,-2.600284E-1,3.5915608E0,3.6392566E-2,2.2996512E-1,4.6498504E0,-3.6409876E-1,2.2697872E-1,-1.373093E-1,3.4509804E0,-4.0395838E-1,6.0991794E-1,3.5755146E0,8.145634E-1,-4.8703384E-2,2.5297158E0,-4.0268913E-1,4.0018745E-2,4.6784353E0,2.135922E-1,2.7042513E0,-1.5062657E-1,6.068966E-1,-1.373093E-1,4.948781E0,2.1945134E-1,-4.375702E-1,-1.8373013E-1,7.31623E-3,2.550535E0,3.2873562E-1,1.175772E0,1.0488082E-1,-1.4430524E-1,-4.4977292E-2,7.9557776E-1,1.3341726E0,3.5245478E-1,-3.9926365E-2,5.940452E-1,-1.4750221E-1,2.588235E-1,1.128839E0,-4.802496E-2,-1.3055445E-1,3.6377952E-1,2.684486E-1,-5.1972266E-2,3.2873562E-1,1.4686067E0,-1.2514971E-1,3.1935483E-1,1.1521198E0,-8.850576E-2,-1.0868991E-1,3.6701226E-1,5.057471E-2,1.534277E0,-8.850576E-2,1.8965517E-1,-1.344301E-1,2.925208E-1,4.2340842E-1,-8.326618E-2,-8.291458E-2,4.8030412E-1,1.1790419E0,1.1453362E-1],"categories":[],"categories_nodes":[],"categories_segments":[],"categories_sizes":[],"default_left":[0,0,0,0,0,0,0,0,0,0,0,0,0,0,0,0,0,0,0,0,0,0,0,0,0,0,0,0,0,0,0,0,0,0,0,0,0,0,0,0,0,0,0,0,0,0,0,0,0,0,0,0,0,0,0,0,0,0,0,0,0,0,0,0,0,0,0,0,0,0,0,0,0,0,0,0,0,0,0,0,0,0,0,0,0],"id":8,"left_children":[1,3,5,7,9,11,13,15,17,19,21,23,25,-1,-1,27,29,31,33,35,37,39,41,43,45,-1,47,49,51,53,55,57,59,61,63,65,67,69,71,-1,-1,73,75,77,79,81,83,-1,-1,-1,-1,-1,-1,-1,-1,-1,-1,-1,-1,-1,-1,-1,-1,-1,-1,-1,-1,-1,-1,-1,-1,-1,-1,-1,-1,-1,-1,-1,-1,-1,-1,-1,-1,-1,-1],"loss_changes":[2.0416507E2,2.7272406E2,6.613532E1,7.721054E1,2.7644543E2,2.6172401E1,4.6873253E1,2.2085376E2,3.5920807E1,1.9553262E2,1.00281555E2,2.4201992E1,3.810392E1,0E0,0E0,1.679606E1,1.0404562E2,3.564241E1,9.249599E0,7.30665E1,3.405902E1,9.699545E0,4.6427612E1,6.6595917E0,4.10705E1,0E0,8.1853104E-1,4.3630295E0,3.3237732E1,5.9476654E1,2.9849583E1,5.6995664E0,3.242661E1,8.205622E0,1.2992606E1,6.459961E0,3.6422625E0,1.6368687E1,1.9049715E1,0E0,0E0,2.5685547E1,8.902073E-1,5.8019714E0,2.2680807E1,3.415039E1,1.929538E1,0E0,0E0,0E0,0E0,0E0,0E0,0E0,0E0,0E0,0E0,0E0,0E0,0E0,0E0,0E0,0E0,0E0,0E0,0E0,0E0,0E0,0E0,0E0,0E0,0E0,0E0,0E0,0E0,0E0,0E0,0E0,0E0,0E0,0E0,0E0,0E0,0E0,0E0],"parents":[2147483647,0,0,1,1,2,2,3,3,4,4,5,5,6,6,7,7,8,8,9,9,10,10,11,11,12,12,15,15,16,16,17,17,18,18,19,19,20,20,21,21,22,22,23,23,24,24,26,26,27,27,28,28,29,29,30,30,31,31,32,32,33,33,34,34,35,35,36,36,37,37,38,38,41,41,42,42,43,43,44,44,45,45,46,46],"right_children":[2,4,6,8,10,12,14,16,18,20,22,24,26,-1,-1,28,30,32,34,36,38,40,42,44,46,-1,48,50,52,54,56,58,60,62,64,66,68,70,72,-1,-1,74,76,78,80,82,84,-1,-1,-1,-1,-1,-1,-1,-1,-1,-1,-1,-1,-1,-1,-1,-1,-1,-1,-1,-1,-1,-1,-1,-1,-1,-1,-1,-1,-1,-1,-1,-1,-1,-1,-1,-1,-1,-1],"split_conditions":[-4.1537905E-1,5.5541E-1,2.8452168E0,-5.906947E-1,8.090766E-1,2.1481493E0,-7.1892667E-1,-4.7259414E-1,-1.4559524E0,-1.0496318E0,-6.367962E-1,1.3356543E0,4.2033958E-1,1.2930408E0,-1.2514971E-1,-8.0573267E-1,-7.0072645E-1,1.4084787E-2,-1.0844443E-1,-6.275948E-2,-1.1974921E0,-8.7223643E-1,1.4162183E0,8.6785175E-2,1.1628082E0,-1.373093E-1,-5.1826984E-1,-1.3358421E0,3.9499673E-1,-1.143069E-1,-5.8278345E-2,-2.852896E-1,3.822921E-1,3.2863157E0,-7.226958E-1,-8.16521E-1,-5.461481E-1,2.5206909E-2,1.092049E0,6.068966E-1,-1.373093E-1,-9.240278E-1,-5.4953307E-2,8.4002846E-1,-7.214593E-1,4.6174768E-1,-1.1149212E0,3.2873562E-1,1.175772E0,1.0488082E-1,-1.4430524E-1,-4.4977292E-2,7.9557776E-1,1.3341726E0,3.5245478E-1,-3.9926365E-2,5.940452E-1,-1.4750221E-1,2.588235E-1,1.128839E0,-4.802496E-2,-1.3055445E-1,3.6377952E-1,2.684486E-1,-5.1972266E-2,3.2873562E-1,1.4686067E0,-1.2514971E-1,3.1935483E-1,1.1521198E0,-8.850576E-2,-1.0868991E-1,3.6701226E-1,5.057471E-2,1.534277E0,-8.850576E-2,1.8965517E-1,-1.344301E-1,2.925208E-1,4.2340842E-1,-8.326618E-2,-8.291458E-2,4.8030412E-1,1.1790419E0,1.1453362E-1],"split_indices":[115,65,15,54,37,29,1,93,105,105,107,100,92,0,0,93,22,80,65,13,31,14,41,43,51,0,7,29,13,118,81,69,94,7,13,6,1,53,71,0,0,1,0,47,27,31,37,0,0,0,0,0,0,0,0,0,0,0,0,0,0,0,0,0,0,0,0,0,0,0,0,0,0,0,0,0,0,0,0,0,0,0,0,0,0],"split_type":[0,0,0,0,0,0,0,0,0,0,0,0,0,0,0,0,0,0,0,0,0,0,0,0,0,0,0,0,0,0,0,0,0,0,0,0,0,0,0,0,0,0,0,0,0,0,0,0,0,0,0,0,0,0,0,0,0,0,0,0,0,0,0,0,0,0,0,0,0,0,0,0,0,0,0,0,0,0,0,0,0,0,0,0,0],"sum_hessian":[1.1123967E3,5.090909E2,6.033058E2,3.8247934E2,1.26611565E2,5.9570245E2,7.603306E0,1.4710744E2,2.353719E2,8.5619835E1,4.0991734E1,5.871074E2,8.595041E0,4.46281E0,3.1404958E0,9.140496E1,5.5702477E1,2.0661156E1,2.1471074E2,1.9173553E1,6.644628E1,6.115702E0,3.4876034E1,5.076033E2,7.950413E1,4.958678E0,3.6363635E0,7.123967E1,2.0165289E1,2.9917355E1,2.5785124E1,1.2066115E1,8.595041E0,1.4528926E2,6.9421486E1,1.4214876E1,4.958678E0,3.4710743E0,6.2975204E1,1.1570247E0,4.958678E0,3.256198E1,2.3140495E0,3.596694E2,1.4793388E2,7.355372E1,5.950413E0,1.1570247E0,2.479339E0,6.2809916E0,6.495868E1,1.5371901E1,4.7933884E0,2.1322313E1,8.595041E0,1.4710744E1,1.107438E1,8.429752E0,3.6363635E0,5.6198344E0,2.9752066E0,1.4314049E2,2.1487603E0,1.3223141E1,5.6198345E1,1.1570247E0,1.3057851E1,3.1404958E0,1.8181818E0,2.3140495E0,1.1570247E0,5.520661E1,7.7685947E0,1.1570247E0,3.1404959E1,1.1570247E0,1.1570247E0,3.5768594E2,1.983471E0,7.4380164E0,1.4049586E2,6.3140495E1,1.0413223E1,3.1404958E0,2.8099172E0],"tree_param":{"num_deleted":"0","num_feature":"120","num_nodes":"85","size_leaf_vector":"1"}},{"base_weights":[5.495057E-2,-1.7087731E-1,8.2335645E-1,3.7914555E0,-2.2382264E-1,1.5588216E0,6.0945816E-2,-1.0451309E-1,1.4653099E0,-2.6583076E-1,3.7650323E0,2.2252796E0,3.8245976E-1,1.9578453E0,-1.1313481E-1,5.057471E-2,-9.395019E-2,3.3569694E-1,-3.3913678E-1,-1.02803744E-1,1.4233825E0,2.7453089E0,4.7707555E-1,2.4786844E0,3.463882E-2,-1.380567E-1,1.2930408E0,-3.354364E-1,5.2581257E-1,-4.022003E-1,1.2253493E0,7.952909E-1,-3.5058025E-1,7.18001E-1,3.3755405E0,1.6353078E0,-1.5050568E-1,3.329173E0,-9.867111E-2,-2.1111362E-1,1.5561719E0,-3.9936516E-1,1.031936E0,1.4342332E0,-2.802548E-1,-1.4366828E-1,4.678161E-1,6.371791E-1,2.8934586E-3,-1.16509646E-1,1.22586556E-1,1.1274472E0,-1.0570149E-1,1.1683398E0,1.6801152E-1,-1.2169198E-1,9.184261E-1,3.1935483E-1,-1.2648872E-1,1.1790419E0,1.8965517E-1,5.9418285E-1,-1.1749589E-1,-3.135393E-2,8.3087885E-1,-1.3651389E-1,1.8175559E-1,-1.096953E-1,7.45977E-1,7.2764856E-1,-1.3651927E-1,2.0952381E-1,-1.533992E-1],"categories":[],"categories_nodes":[],"categories_segments":[],"categories_sizes":[],"default_left":[0,0,0,0,0,0,0,0,0,0,0,0,0,0,0,0,0,0,0,0,0,0,0,0,0,0,0,0,0,0,0,0,0,0,0,0,0,0,0,0,0,0,0,0,0,0,0,0,0,0,0,0,0,0,0,0,0,0,0,0,0,0,0,0,0,0,0,0,0,0,0,0,0],"id":9,"left_children":[1,3,5,7,9,11,13,15,-1,17,19,21,23,25,27,-1,-1,29,31,-1,-1,33,35,37,39,-1,-1,41,43,45,47,-1,49,51,53,55,57,59,-1,61,63,65,67,69,71,-1,-1,-1,-1,-1,-1,-1,-1,-1,-1,-1,-1,-1,-1,-1,-1,-1,-1,-1,-1,-1,-1,-1,-1,-1,-1,-1,-1],"loss_changes":[1.933456E2,1.815446E2,1.4180588E2,4.910739E1,1.4358423E2,1.0010297E2,4.1596424E1,2.5105593E-1,0E0,3.72857E1,3.7574173E1,7.323035E1,3.4748768E1,6.2200207E1,1.6611818E1,0E0,0E0,6.0937096E1,2.6657616E1,0E0,0E0,7.8048645E1,1.4789826E1,1.7296642E1,1.6030096E1,0E0,0E0,7.969495E0,2.2556995E1,8.431748E0,4.585165E1,0E0,2.1671532E1,5.4060432E1,6.762268E1,2.1952948E1,5.0253296E0,6.101658E0,0E0,1.54294E1,1.2296881E1,4.9389105E0,9.326874E0,2.8050247E1,4.171705E0,0E0,0E0,0E0,0E0,0E0,0E0,0E0,0E0,0E0,0E0,0E0,0E0,0E0,0E0,0E0,0E0,0E0,0E0,0E0,0E0,0E0,0E0,0E0,0E0,0E0,0E0,0E0,0E0],"parents":[2147483647,0,0,1,1,2,2,3,3,4,4,5,5,6,6,7,7,9,9,10,10,11,11,12,12,13,13,14,14,17,17,18,18,21,21,22,22,23,23,24,24,27,27,28,28,29,29,30,30,32,32,33,33,34,34,35,35,36,36,37,37,39,39,40,40,41,41,42,42,43,43,44,44],"right_children":[2,4,6,8,10,12,14,16,-1,18,20,22,24,26,28,-1,-1,30,32,-1,-1,34,36,38,40,-1,-1,42,44,46,48,-1,50,52,54,56,58,60,-1,62,64,66,68,70,72,-1,-1,-1,-1,-1,-1,-1,-1,-1,-1,-1,-1,-1,-1,-1,-1,-1,-1,-1,-1,-1,-1,-1,-1,-1,-1,-1,-1],"split_conditions":[6.772523E-1,-1.1491631E0,9.7281325E-1,5.00688E-1,2.7290828E0,2.3558922E-1,-1.6341242E0,-2.5034575E0,1.4653099E0,-1.2547128E0,-6.1199623E-1,3.184197E-1,5.8177626E-1,7.9998755E-1,6.360288E-1,5.057471E-2,-9.395019E-2,-2.8605375E-1,-3.338758E0,-1.02803744E-1,1.4233825E0,-8.3149755E-1,-2.9889444E-2,7.1906626E-1,1.0097857E0,-1.380567E-1,1.2930408E0,1.3324742E0,1.0704292E-1,1.921588E0,1.4244771E-1,7.952909E-1,1.6675696E0,-1.0107765E0,1.1033705E0,-1.8875347E-1,1.9263028E-1,6.3858724E-1,-9.867111E-2,-1.181879E0,3.9995036E-1,-8.430268E-1,4.860173E-1,6.2801284E-1,7.715857E-1,-1.4366828E-1,4.678161E-1,6.371791E-1,2.8934586E-3,-1.16509646E-1,1.22586556E-1,1.1274472E0,-1.0570149E-1,1.1683398E0,1.6801152E-1,-1.2169198E-1,9.184261E-1,3.1935483E-1,-1.2648872E-1,1.1790419E0,1.8965517E-1,5.9418285E-1,-1.1749589E-1,-3.135393E-2,8.3087885E-1,-1.3651389E-1,1.8175559E-1,-1.096953E-1,7.45977E-1,7.2764856E-1,-1.3651927E-1,2.0952381E-1,-1.533992E-1],"split_indices":[115,107,114,9,57,105,54,4,0,49,65,100,97,117,53,0,0,54,21,0,0,100,33,6,42,0,0,60,45,45,11,0,66,45,98,38,52,24,0,56,68,112,38,100,6,0,0,0,0,0,0,0,0,0,0,0,0,0,0,0,0,0,0,0,0,0,0,0,0,0,0,0,0],"split_type":[0,0,0,0,0,0,0,0,0,0,0,0,0,0,0,0,0,0,0,0,0,0,0,0,0,0,0,0,0,0,0,0,0,0,0,0,0,0,0,0,0,0,0,0,0,0,0,0,0,0,0,0,0,0,0,0,0,0,0,0,0,0,0,0,0,0,0,0,0,0,0,0,0],"sum_hessian":[1.1123967E3,8.6033057E2,2.5206612E2,1.0413223E1,8.4991736E2,1.2776859E2,1.24297516E2,2.479339E0,7.933884E0,8.4198346E2,7.933884E0,8.099174E1,4.677686E1,9.586777E0,1.1471074E2,1.1570247E0,1.322314E0,9.107438E1,7.5090906E2,1.6528926E0,6.2809916E0,6.198347E1,1.9008265E1,5.785124E0,4.0991734E1,5.1239667E0,4.46281E0,8.5454544E1,2.9256197E1,5.0082645E1,4.0991734E1,1.983471E0,7.489256E2,1.5206612E1,4.677686E1,6.115702E0,1.2892562E1,4.2975206E0,1.4876033E0,3.603306E1,4.958678E0,8.231405E1,3.1404958E0,1.338843E1,1.5867768E1,4.8925617E1,1.1570247E0,2.3140495E1,1.785124E1,7.138843E2,3.504132E1,3.3057852E0,1.1900826E1,3.9173553E1,7.603306E0,2.8099172E0,3.3057852E0,1.8181818E0,1.107438E1,3.1404958E0,1.1570247E0,1.983471E0,3.4049587E1,2.479339E0,2.479339E0,7.85124E1,3.801653E0,1.983471E0,1.1570247E0,8.595041E0,4.7933884E0,2.644628E0,1.3223141E1],"tree_param":{"num_deleted":"0","num_feature":"120","num_nodes":"73","size_leaf_vector":"1"}},{"base_weights":[-1.0492057E-1,-3.616506E-1,7.307655E-1,3.0897398E-2,-4.6349865E-1,2.5710368E0,-5.4160543E-2,-2.9578632E-1,1.2420521E0,-2.4688865E-1,-4.9076715E-1,4.1775327E0,5.5240726E-1,5.126498E-1,-3.8342375E-1,-4.8670235E-1,2.4087588E-1,2.6492145E0,3.8357195E-2,-4.6344918E-1,1.9835491E-1,-5.3753316E-1,-4.1643053E-1,4.7369866E0,1.2928501E0,-3.1623042E-8,2.3035543E0,1.560366E0,-3.5733655E-2,4.678161E-1,-4.1618663E-1,-5.333452E-1,-6.372197E-2,-1.7441551E-1,1.8870792E0,3.9654112E0,4.4191092E-1,-2.9042906E-1,1.2306368E0,-2.8819828E-8,-1.6135743E-1,-2.8543973E-1,1.0166527E0,-5.402422E-1,5.057471E-2,-6.160364E-2,-5.35569E-1,-1.02803744E-1,4.991108E0,2.722555E0,-6.864277E-2,-3.5621262E-1,1.4436519E0,3.402219E0,-1.2471657E-1,-4.1984734E-1,3.3122945E0,-3.0016908E-1,6.8704796E-1,-4.4091663E-1,3.2873562E-1,-9.809752E-2,-1.6310598E-1,-1.17358185E-1,3.4953272E-1,4.6261683E-1,-9.747232E-2,-1.096953E-1,8.237885E-1,-9.395019E-2,1.3795793E0,4.295011E-1,-1.3063684E-1,1.2941176E-1,-1.5312316E-1,8.0186915E-1,-1.12598434E-1,3.4953272E-1,-1.4007492E-1,-1.3540243E-1,2.6312292E-1,7.9002494E-1,5.374592E-2,3.523131E-2,-1.628896E-1,-1.3723338E-1,1.7907889E-1,-6.4495124E-2,-1.6402994E-1,-8.850576E-2,1.5552102E0,1.644128E-1,1.0645162E0,-1.2514971E-1,1.8965517E-1,-1.5661488E-1,1.19277105E-1,-3.741497E-2,8.401575E-1,1.644128E-1,1.2294118E0,-9.867111E-2,5.057471E-2,5.057471E-2,-1.4965412E-1,1.218919E0,5.4869354E-2,1.397882E-1,-1.2921412E-1,7.444685E-1,-2.5148189E-2,-4.9987387E-2,-1.6301955E-1],"categories":[],"categories_nodes":[],"categories_segments":[],"categories_sizes":[],"default_left":[0,0,0,0,0,0,0,0,0,0,0,0,0,0,0,0,0,0,0,0,0,0,0,0,0,0,0,0,0,0,0,0,0,0,0,0,0,0,0,0,0,0,0,0,0,0,0,0,0,0,0,0,0,0,0,0,0,0,0,0,0,0,0,0,0,0,0,0,0,0,0,0,0,0,0,0,0,0,0,0,0,0,0,0,0,0,0,0,0,0,0,0,0,0,0,0,0,0,0,0,0,0,0,0,0,0,0,0,0,0,0,0,0],"id":10,"left_children":[1,3,5,7,9,11,13,15,17,19,21,23,25,27,29,31,33,35,37,39,41,43,45,47,49,51,53,55,57,-1,59,61,63,65,67,69,71,73,75,77,-1,79,81,83,-1,85,87,-1,89,91,93,95,97,99,101,103,105,107,109,111,-1,-1,-1,-1,-1,-1,-1,-1,-1,-1,-1,-1,-1,-1,-1,-1,-1,-1,-1,-1,-1,-1,-1,-1,-1,-1,-1,-1,-1,-1,-1,-1,-1,-1,-1,-1,-1,-1,-1,-1,-1,-1,-1,-1,-1,-1,-1,-1,-1,-1,-1,-1,-1],"loss_changes":[2.3913875E2,3.4093704E1,3.7858026E2,7.021689E1,3.8768463E0,2.5179248E2,3.46552E1,1.4445186E1,6.374462E1,7.583372E0,1.8626099E0,6.40448E1,3.4704548E1,3.9281868E1,8.119442E0,2.007557E0,2.5872934E1,4.8693283E1,8.719109E0,1.812871E0,1.063236E1,7.892151E-1,9.952297E0,4.8234314E1,1.661176E1,1.50534115E1,2.3376686E1,8.2845E1,8.958677E0,0E0,4.8282375E0,2.0820618E-2,5.048552E0,8.444765E0,1.5731167E1,3.056894E1,7.233182E0,3.0034714E0,1.2124893E1,5.044442E0,0E0,3.7127929E0,1.2967892E1,7.153244E-1,0E0,1.604494E1,5.167694E-1,0E0,3.6599792E1,5.490761E0,1.5576668E0,3.1426764E0,1.2678047E1,9.587997E0,2.7371633E-1,6.377003E-1,2.879007E1,3.6234934E0,1.7597029E1,3.1434937E0,0E0,0E0,0E0,0E0,0E0,0E0,0E0,0E0,0E0,0E0,0E0,0E0,0E0,0E0,0E0,0E0,0E0,0E0,0E0,0E0,0E0,0E0,0E0,0E0,0E0,0E0,0E0,0E0,0E0,0E0,0E0,0E0,0E0,0E0,0E0,0E0,0E0,0E0,0E0,0E0,0E0,0E0,0E0,0E0,0E0,0E0,0E0,0E0,0E0,0E0,0E0,0E0,0E0],"parents":[2147483647,0,0,1,1,2,2,3,3,4,4,5,5,6,6,7,7,8,8,9,9,10,10,11,11,12,12,13,13,14,14,15,15,16,16,17,17,18,18,19,19,20,20,21,21,22,22,23,23,24,24,25,25,26,26,27,27,28,28,30,30,31,31,32,32,33,33,34,34,35,35,36,36,37,37,38,38,39,39,41,41,42,42,43,43,45,45,46,46,48,48,49,49,50,50,51,51,52,52,53,53,54,54,55,55,56,56,57,57,58,58,59,59],"right_children":[2,4,6,8,10,12,14,16,18,20,22,24,26,28,30,32,34,36,38,40,42,44,46,48,50,52,54,56,58,-1,60,62,64,66,68,70,72,74,76,78,-1,80,82,84,-1,86,88,-1,90,92,94,96,98,100,102,104,106,108,110,112,-1,-1,-1,-1,-1,-1,-1,-1,-1,-1,-1,-1,-1,-1,-1,-1,-1,-1,-1,-1,-1,-1,-1,-1,-1,-1,-1,-1,-1,-1,-1,-1,-1,-1,-1,-1,-1,-1,-1,-1,-1,-1,-1,-1,-1,-1,-1,-1,-1,-1,-1,-1,-1],"split_conditions":[6.947025E-1,-8.141873E-1,-6.1298245E-1,6.668575E-1,-9.01717E-1,4.8508975E-3,8.4123835E-2,9.26964E-2,1.6016267E-1,4.3351164E-1,3.7665644E-1,9.348668E-3,7.9516673E-1,-2.1722284E-1,-9.4249684E-1,1.6654932E-1,5.984004E-1,-1.3105975E-2,2.1453555E-1,-6.564116E-1,-9.570172E-2,2.0824604E0,-4.6255212E-2,-1.0992656E0,-2.1377225E-1,2.8011808E-1,4.1925782E-1,-2.9881838E-1,8.940924E-1,4.678161E-1,1.2288839E0,-4.229377E-1,2.932109E-1,-1.7836256E-1,-1.0095696E-1,-9.9577117E-1,-5.9703183E-1,-1.1167513E0,-2.1081914E-1,2.2872163E-1,-1.6135743E-1,1.836287E0,-4.2457467E-1,-2.982106E0,5.057471E-2,3.0245987E-1,-6.4033276E-1,-1.02803744E-1,-6.883397E-1,-2.1109484E-1,6.1432314E-1,8.0268216E-1,-1.04650214E-1,-7.3411375E-1,-9.370251E-2,-1.01438515E-1,9.829008E-2,-1.0374418E0,-5.1169634E-1,-4.9427754E-1,3.2873562E-1,-9.809752E-2,-1.6310598E-1,-1.17358185E-1,3.4953272E-1,4.6261683E-1,-9.747232E-2,-1.096953E-1,8.237885E-1,-9.395019E-2,1.3795793E0,4.295011E-1,-1.3063684E-1,1.2941176E-1,-1.5312316E-1,8.0186915E-1,-1.12598434E-1,3.4953272E-1,-1.4007492E-1,-1.3540243E-1,2.6312292E-1,7.9002494E-1,5.374592E-2,3.523131E-2,-1.628896E-1,-1.3723338E-1,1.7907889E-1,-6.4495124E-2,-1.6402994E-1,-8.850576E-2,1.5552102E0,1.644128E-1,1.0645162E0,-1.2514971E-1,1.8965517E-1,-1.5661488E-1,1.19277105E-1,-3.741497E-2,8.401575E-1,1.644128E-1,1.2294118E0,-9.867111E-2,5.057471E-2,5.057471E-2,-1.4965412E-1,1.218919E0,5.4869354E-2,1.397882E-1,-1.2921412E-1,7.444685E-1,-2.5148189E-2,-4.9987387E-2,-1.6301955E-1],"split_indices":[18,37,37,118,96,63,58,74,63,52,73,61,107,61,35,18,5,61,72,63,111,12,1,53,1,68,53,65,52,0,6,113,87,113,65,21,39,44,7,36,0,56,80,16,0,5,37,0,13,49,5,86,107,69,0,0,63,24,119,1,0,0,0,0,0,0,0,0,0,0,0,0,0,0,0,0,0,0,0,0,0,0,0,0,0,0,0,0,0,0,0,0,0,0,0,0,0,0,0,0,0,0,0,0,0,0,0,0,0,0,0,0,0],"split_type":[0,0,0,0,0,0,0,0,0,0,0,0,0,0,0,0,0,0,0,0,0,0,0,0,0,0,0,0,0,0,0,0,0,0,0,0,0,0,0,0,0,0,0,0,0,0,0,0,0,0,0,0,0,0,0,0,0,0,0,0,0,0,0,0,0,0,0,0,0,0,0,0,0,0,0,0,0,0,0,0,0,0,0,0,0,0,0,0,0,0,0,0,0,0,0,0,0,0,0,0,0,0,0,0,0,0,0,0,0,0,0,0,0],"sum_hessian":[1.1123967E3,8.5140497E2,2.6099173E2,1.7553719E2,6.7586774E2,7.735537E1,1.8363635E2,1.3884297E2,3.6694214E1,7.6694214E1,5.991735E2,4.247934E1,3.4876034E1,6.727273E1,1.1636363E2,1.0247934E2,3.6363636E1,1.6363636E1,2.0330578E1,5.1570248E1,2.5123966E1,3.6396695E2,2.352066E2,3.504132E1,7.4380164E0,2.7272726E1,7.603306E0,2.2479338E1,4.479339E1,1.1570247E0,1.1520661E2,9.206612E1,1.0413223E1,2.9752066E1,6.6115704E0,9.752066E0,6.6115704E0,1.6528925E1,3.801653E0,7.272727E0,4.429752E1,1.6198347E1,8.92562E0,3.628099E2,1.1570247E0,5.950413E1,1.7570247E2,1.6528926E0,3.3388428E1,3.1404958E0,4.2975206E0,2.2479338E1,4.7933884E0,4.958678E0,2.644628E0,1.0909091E1,1.1570248E1,3.322314E1,1.1570248E1,1.1404958E2,1.1570247E0,5.950413E0,8.61157E1,8.76033E0,1.6528926E0,1.6528926E0,2.8099173E1,1.983471E0,4.628099E0,1.322314E0,8.429752E0,2.8099172E0,3.801653E0,3.6363635E0,1.2892562E1,1.6528926E0,2.1487603E0,1.6528926E0,5.6198344E0,1.4710744E1,1.4876033E0,2.3140495E0,6.6115704E0,1.322314E0,3.614876E2,3.735537E1,2.214876E1,6.6115704E0,1.6909091E2,1.1570247E0,3.2231403E1,1.322314E0,1.8181818E0,3.1404958E0,1.1570247E0,1.8677685E1,3.801653E0,2.644628E0,2.1487603E0,1.322314E0,3.6363635E0,1.4876033E0,1.1570247E0,1.1570247E0,9.752066E0,9.090909E0,2.479339E0,4.46281E0,2.876033E1,2.8099172E0,8.76033E0,3.1735537E1,8.231405E1],"tree_param":{"num_deleted":"0","num_feature":"120","num_nodes":"113","size_leaf_vector":"1"}},{"base_weights":[1.09963246E-1,-2.8928077E-1,3.8734734E-1,-3.5711908E-1,1.8443303E-1,1.0904024E-1,7.436892E-1,-4.4110185E-1,-1.3406502E-1,1.8978486E0,-1.0994574E-2,-3.2886118E-1,3.107325E-1,9.2076385E-1,-1.3502316E-1,-5.0940496E-1,-3.15925E-1,1.0662333E0,-2.0852506E-1,-9.891791E-2,2.4839354E0,-1.584064E-1,1.7418822E0,3.4402144E-1,-4.4287628E-1,-4.2291153E-3,8.2968044E-1,1.2095557E0,3.8486063E-1,9.620113E-1,-3.3456925E-1,-5.14246E-1,4.8360493E-2,-8.258349E-2,-5.137633E-1,7.802445E-1,-2.0418578E-1,2.2776498E-1,-3.1562498E-1,1.9472045E-1,8.540385E-1,-2.8008512E-1,1.1771867E0,2.8992483E-2,7.4976933E-1,-1.6189978E-1,2.025917E0,-4.8853683E-1,4.5640954E-1,1.9958625E0,-8.981568E-2,1.3117131E0,2.428339E-1,4.3583396E-1,1.5894759E0,8.0361193E-1,-2.4764861E-1,4.130792E-1,-1.04428425E-1,-4.000802E-1,2.939605E-1,-1.5586278E-1,6.151235E-3,-1.1741062E-1,2.4803993E-1,-1.5939382E-1,5.9562236E-2,6.5933764E-2,-1.1746127E-1,-1.0315035E-1,2.8387243E-1,-1.1020389E-1,2.2653444E-1,1.8524602E-1,-1.06272236E-1,-9.6571185E-2,5.6985223E-1,-1.2502499E-1,2.4477239E-1,8.4199774E-1,3.7326403E-2,-1.5268803E-1,2.0296395E-1,-1.1451806E-1,3.5758722E-1,-9.1418505E-2,7.869131E-1,1.2555657E-1,-8.53357E-2,-1.13084696E-1,4.8844317E-1,4.1415194E-1,-2.0082198E-2,9.515231E-3,4.7290435E-1,5.048609E-1,2.676413E-2,3.48202E-1,-5.402078E-2,-1.226472E-1,2.8852156E-1,1.9675703E-1,-1.3965102E-1],"categories":[],"categories_nodes":[],"categories_segments":[],"categories_sizes":[],"default_left":[0,0,0,0,0,0,0,0,0,0,0,0,0,0,0,0,0,0,0,0,0,0,0,0,0,0,0,0,0,0,0,0,0,0,0,0,0,0,0,0,0,0,0,0,0,0,0,0,0,0,0,0,0,0,0,0,0,0,0,0,0,0,0,0,0,0,0,0,0,0,0,0,0,0,0,0,0,0,0,0,0,0,0,0,0,0,0,0,0,0,0,0,0,0,0,0,0,0,0,0,0,0,0],"id":11,"left_children":[1,3,5,7,9,11,13,15,17,19,21,23,25,27,29,31,33,35,37,-1,39,41,43,45,47,49,51,53,55,57,59,61,-1,63,65,-1,67,69,71,-1,-1,73,75,-1,-1,77,79,81,83,85,87,89,91,93,95,97,99,-1,-1,101,-1,-1,-1,-1,-1,-1,-1,-1,-1,-1,-1,-1,-1,-1,-1,-1,-1,-1,-1,-1,-1,-1,-1,-1,-1,-1,-1,-1,-1,-1,-1,-1,-1,-1,-1,-1,-1,-1,-1,-1,-1,-1,-1],"loss_changes":[1.2138098E2,1.4510468E1,6.403932E1,7.312542E0,1.9095438E1,3.226868E1,4.4213882E1,2.2796173E0,9.97081E0,8.440594E0,1.3745252E1,9.000623E0,4.0843555E1,3.605275E1,1.0916195E1,6.7712784E-1,4.731E0,1.327096E1,4.909962E0,0E0,1.3074474E0,8.292847E0,4.9008284E0,1.5026338E1,4.2905617E0,2.6966944E1,2.63788E1,4.424225E1,2.2472813E1,4.668348E0,3.981937E0,5.260582E-1,0E0,1.3980601E1,8.0259705E-1,0E0,4.436715E-1,8.9447775E0,4.9044943E0,0E0,0E0,3.2616198E0,5.2498145E0,0E0,0E0,3.8799062E0,5.6907406E0,2.599043E0,3.7246509E0,1.012698E1,1.5061423E1,2.8179863E1,1.5524432E1,2.37876E1,1.4161957E1,1.8063286E1,7.0717044E0,0E0,0E0,3.0976772E0,0E0,0E0,0E0,0E0,0E0,0E0,0E0,0E0,0E0,0E0,0E0,0E0,0E0,0E0,0E0,0E0,0E0,0E0,0E0,0E0,0E0,0E0,0E0,0E0,0E0,0E0,0E0,0E0,0E0,0E0,0E0,0E0,0E0,0E0,0E0,0E0,0E0,0E0,0E0,0E0,0E0,0E0,0E0],"parents":[2147483647,0,0,1,1,2,2,3,3,4,4,5,5,6,6,7,7,8,8,9,9,10,10,11,11,12,12,13,13,14,14,15,15,16,16,17,17,18,18,20,20,21,21,22,22,23,23,24,24,25,25,26,26,27,27,28,28,29,29,30,30,31,31,33,33,34,34,36,36,37,37,38,38,41,41,42,42,45,45,46,46,47,47,48,48,49,49,50,50,51,51,52,52,53,53,54,54,55,55,56,56,59,59],"right_children":[2,4,6,8,10,12,14,16,18,20,22,24,26,28,30,32,34,36,38,-1,40,42,44,46,48,50,52,54,56,58,60,62,-1,64,66,-1,68,70,72,-1,-1,74,76,-1,-1,78,80,82,84,86,88,90,92,94,96,98,100,-1,-1,102,-1,-1,-1,-1,-1,-1,-1,-1,-1,-1,-1,-1,-1,-1,-1,-1,-1,-1,-1,-1,-1,-1,-1,-1,-1,-1,-1,-1,-1,-1,-1,-1,-1,-1,-1,-1,-1,-1,-1,-1,-1,-1,-1],"split_conditions":[-2.6359412E-1,5.038354E-1,2.1232049E-1,-4.7408628E-1,-1.0526483E0,-6.6899663E-1,6.90033E-1,-8.099112E-2,-1.4902763E0,-5.0504225E-1,1.6291785E0,-1.1254895E0,5.2432425E-2,1.923403E-1,-6.1040014E-1,2.1881068E0,2.5919384E-1,-8.255272E-1,-5.32789E-1,-9.891791E-2,-1.0115335E0,1.7217021E0,1.1259577E-1,6.5545815E-1,1.2359769E0,-7.188218E-1,-3.2793838E-1,-5.4964596E-1,-4.4538514E-3,-3.8006774E-1,1.2705822E0,1.5851054E0,4.8360493E-2,-3.4877774E-1,1.3912412E0,7.802445E-1,-8.87492E-1,9.928253E-2,1.533816E0,1.9472045E-1,8.540385E-1,-1.0424409E0,6.4745426E-2,2.8992483E-2,7.4976933E-1,7.900021E-1,1.1858455E0,2.3937669E0,-8.789995E-1,-6.662391E-1,-4.511515E-1,-5.05464E-1,-4.7847176E-1,4.033831E-1,6.3073254E-1,1.1281824E0,8.3700293E-1,4.130792E-1,-1.04428425E-1,-2.4256684E-1,2.939605E-1,-1.5586278E-1,6.151235E-3,-1.1741062E-1,2.4803993E-1,-1.5939382E-1,5.9562236E-2,6.5933764E-2,-1.1746127E-1,-1.0315035E-1,2.8387243E-1,-1.1020389E-1,2.2653444E-1,1.8524602E-1,-1.06272236E-1,-9.6571185E-2,5.6985223E-1,-1.2502499E-1,2.4477239E-1,8.4199774E-1,3.7326403E-2,-1.5268803E-1,2.0296395E-1,-1.1451806E-1,3.5758722E-1,-9.1418505E-2,7.869131E-1,1.2555657E-1,-8.53357E-2,-1.13084696E-1,4.8844317E-1,4.1415194E-1,-2.0082198E-2,9.515231E-3,4.7290435E-1,5.048609E-1,2.676413E-2,3.48202E-1,-5.402078E-2,-1.226472E-1,2.8852156E-1,1.9675703E-1,-1.3965102E-1],"split_indices":[63,91,91,63,29,111,6,74,41,75,53,80,107,25,53,110,6,37,60,0,32,105,107,33,116,115,89,111,115,81,52,78,0,111,46,0,70,45,58,0,0,41,61,0,0,54,30,55,97,11,7,99,70,117,1,22,51,0,0,109,0,0,0,0,0,0,0,0,0,0,0,0,0,0,0,0,0,0,0,0,0,0,0,0,0,0,0,0,0,0,0,0,0,0,0,0,0,0,0,0,0,0,0],"split_type":[0,0,0,0,0,0,0,0,0,0,0,0,0,0,0,0,0,0,0,0,0,0,0,0,0,0,0,0,0,0,0,0,0,0,0,0,0,0,0,0,0,0,0,0,0,0,0,0,0,0,0,0,0,0,0,0,0,0,0,0,0,0,0,0,0,0,0,0,0,0,0,0,0,0,0,0,0,0,0,0,0,0,0,0,0,0,0,0,0,0,0,0,0,0,0,0,0,0,0,0,0,0,0],"sum_hessian":[1.094039E3,4.484843E2,6.4555457E2,3.925196E2,5.5964745E1,3.631984E2,2.8235617E2,2.8444485E2,1.0807474E2,4.837817E0,5.1126926E1,1.1433375E2,2.4886464E2,2.3496008E2,4.7396084E1,1.8204305E2,1.02401794E2,5.534756E0,1.0253998E2,1.0988317E0,3.7389858E0,4.7999905E1,3.1270218E0,1.627374E1,9.806001E1,1.5548749E2,9.337715E1,1.5186487E2,8.3095215E1,6.7062845E0,4.06898E1,1.8096982E2,1.0732343E0,4.763539E1,5.4766403E1,2.0324643E0,3.502292E0,1.9988148E1,8.2551834E1,1.077775E0,2.6612108E0,4.471633E1,3.2835727E0,1.3411516E0,1.7858702E0,1.3205277E1,3.0684626E0,9.3756355E1,4.303657E0,5.4645844E0,1.500229E2,5.0588684E1,4.2788467E1,5.0719616E1,1.01145256E2,4.9832928E1,3.3262287E1,5.0544877E0,1.6517968E0,3.9420715E1,1.2690837E0,1.7922308E2,1.7467266E0,3.598586E1,1.164953E1,5.369752E1,1.0688825E0,1.0203109E0,2.481981E0,1.1422316E1,8.565831E0,7.9374626E1,3.177211E0,2.8533075E0,4.186302E1,1.2479495E0,2.0356233E0,1.0930267E1,2.2750103E0,1.8378332E0,1.2306294E0,9.2694626E1,1.0617285E0,2.2363868E0,2.0672703E0,1.2807475E0,4.183837E0,4.121925E1,1.0880366E2,7.9533944E0,4.263529E1,8.417611E0,3.4370857E1,3.820892E1,1.2510697E1,9.510321E1,6.04204E0,3.6429604E1,1.3403323E1,2.9934824E1,3.3274655E0,1.7733777E0,3.764734E1],"tree_param":{"num_deleted":"0","num_feature":"120","num_nodes":"103","size_leaf_vector":"1"}},{"base_weights":[-9.3809955E-2,-3.9531025E-1,3.3235943E-1,-4.1880256E-1,7.4237245E-1,-2.0558093E-2,9.163091E-1,2.1217531E-1,-4.5440108E-1,-1.3907404E-1,1.9430175E0,4.5937452E-1,-2.7812153E-1,-4.1459624E-2,1.2976966E0,-4.590309E-1,1.0726914E0,-5.161834E-1,-3.0939388E-1,5.3399347E-2,6.763186E-1,-4.2683575E-1,7.199111E-1,3.3821306E-1,-4.4895002E-1,-3.8936114E-1,8.514179E-1,-1.6190833E-1,1.441732E0,-1.5302733E-1,6.666221E-2,1.5743158E0,-8.8242084E-2,-5.211686E-1,1.6228656E-1,-2.7850425E-2,-4.6511108E-1,-1.5417224E-1,1.095983E-1,1.0279179E0,-2.580797E-1,-4.025693E-2,1.4251734E0,6.303304E-2,-4.9381053E-1,-4.690275E-1,2.281334E-1,1.5463065E0,-2.9043162E-1,-1.4416355E-1,7.479691E-1,8.0723804E-1,1.6257832E0,4.0269665E-2,5.2825356E-1,-1.2386744E-1,1.9185095E-1,-9.081386E-2,-1.6008297E-1,-9.941516E-2,2.1828891E-1,2.338276E-1,-7.17194E-2,-1.4701536E-1,4.7951177E-2,5.542186E-1,2.0651855E-1,-1.3923426E-1,2.61425E-1,-6.8225406E-2,3.640278E-1,-9.3629636E-2,5.209692E-1,-1.439896E-1,3.5227692E-1,-1.569606E-1,-3.7427373E-2,6.903138E-2,-1.5745217E-1,6.42236E-2,5.933766E-1,5.8872506E-2,-1.2872176E-1,4.3655824E-2,2.9669935E-1,5.299735E-1,9.563655E-2,-9.201752E-2,4.9841028E-1],"categories":[],"categories_nodes":[],"categories_segments":[],"categories_sizes":[],"default_left":[0,0,0,0,0,0,0,0,0,0,0,0,0,0,0,0,0,0,0,0,0,0,0,0,0,0,0,0,0,0,0,0,0,0,0,0,0,0,0,0,0,0,0,0,0,0,0,0,0,0,0,0,0,0,0,0,0,0,0,0,0,0,0,0,0,0,0,0,0,0,0,0,0,0,0,0,0,0,0,0,0,0,0,0,0,0,0,0,0],"id":12,"left_children":[1,3,5,7,9,11,13,15,17,-1,19,21,23,25,27,29,31,33,35,-1,-1,37,39,41,43,45,47,49,51,-1,-1,53,55,57,59,61,63,-1,-1,65,67,69,71,73,75,77,-1,79,81,-1,83,85,87,-1,-1,-1,-1,-1,-1,-1,-1,-1,-1,-1,-1,-1,-1,-1,-1,-1,-1,-1,-1,-1,-1,-1,-1,-1,-1,-1,-1,-1,-1,-1,-1,-1,-1,-1,-1],"loss_changes":[1.3249832E2,1.6448288E1,8.809613E1,1.3398636E1,1.9110157E1,3.317756E1,5.8869995E1,1.9153488E1,4.8653793E0,0E0,3.168087E0,2.1953642E1,1.8536427E1,1.4877222E1,2.4450424E1,7.690737E-1,8.558315E0,1.4098663E0,7.443432E0,0E0,0E0,1.700217E0,2.2201866E1,1.588098E1,3.1811333E0,3.5061493E0,1.1115808E1,3.619639E0,1.0943069E1,0E0,0E0,2.4897099E0,1.5183685E0,8.962784E-1,1.2516043E0,1.0695021E1,1.7841778E0,0E0,0E0,1.4193104E1,4.6494474E0,7.198557E0,5.930874E0,7.765568E0,1.3037567E0,1.3996034E0,0E0,4.4730473E0,4.8417097E-1,0E0,3.3639872E-1,1.1424881E1,6.0358124E0,0E0,0E0,0E0,0E0,0E0,0E0,0E0,0E0,0E0,0E0,0E0,0E0,0E0,0E0,0E0,0E0,0E0,0E0,0E0,0E0,0E0,0E0,0E0,0E0,0E0,0E0,0E0,0E0,0E0,0E0,0E0,0E0,0E0,0E0,0E0,0E0],"parents":[2147483647,0,0,1,1,2,2,3,3,4,4,5,5,6,6,7,7,8,8,10,10,11,11,12,12,13,13,14,14,15,15,16,16,17,17,18,18,21,21,22,22,23,23,24,24,25,25,26,26,27,27,28,28,31,31,32,32,33,33,34,34,35,35,36,36,39,39,40,40,41,41,42,42,43,43,44,44,45,45,47,47,48,48,50,50,51,51,52,52],"right_children":[2,4,6,8,10,12,14,16,18,-1,20,22,24,26,28,30,32,34,36,-1,-1,38,40,42,44,46,48,50,52,-1,-1,54,56,58,60,62,64,-1,-1,66,68,70,72,74,76,78,-1,80,82,-1,84,86,88,-1,-1,-1,-1,-1,-1,-1,-1,-1,-1,-1,-1,-1,-1,-1,-1,-1,-1,-1,-1,-1,-1,-1,-1,-1,-1,-1,-1,-1,-1,-1,-1,-1,-1,-1,-1],"split_conditions":[4.2592695E-1,2.554549E0,5.3557765E-1,-1.7208862E0,-6.858777E-1,-2.6916873E-1,1.8418369E-1,-1.0686145E-1,-9.170929E-2,-1.3907404E-1,-1.8355289E-1,-7.254549E-2,-8.9824665E-1,6.336072E-1,-7.9907125E-1,5.878098E-2,-6.2141854E-1,2.0336752E0,-4.5256442E-1,5.3399347E-2,6.763186E-1,1.0397469E0,3.180385E-1,7.2890663E-1,-8.341772E-1,1.5924253E0,2.1774274E-1,8.138659E-1,2.929519E-1,-1.5302733E-1,6.666221E-2,7.867937E-1,4.4199172E-1,-1.0574353E0,-1.9737379E-1,-6.548091E-1,1.3928236E0,-1.5417224E-1,1.095983E-1,-4.3339792E-1,1.3121905E0,7.094348E-2,4.5721632E-1,7.9688275E-1,1.4032166E0,-1.2038695E0,2.281334E-1,5.2238107E-1,-1.2001754E0,-1.4416355E-1,8.324094E-1,-8.452977E-1,-5.3363734E-1,4.0269665E-2,5.2825356E-1,-1.2386744E-1,1.9185095E-1,-9.081386E-2,-1.6008297E-1,-9.941516E-2,2.1828891E-1,2.338276E-1,-7.17194E-2,-1.4701536E-1,4.7951177E-2,5.542186E-1,2.0651855E-1,-1.3923426E-1,2.61425E-1,-6.8225406E-2,3.640278E-1,-9.3629636E-2,5.209692E-1,-1.439896E-1,3.5227692E-1,-1.569606E-1,-3.7427373E-2,6.903138E-2,-1.5745217E-1,6.42236E-2,5.933766E-1,5.8872506E-2,-1.2872176E-1,4.3655824E-2,2.9669935E-1,5.299735E-1,9.563655E-2,-9.201752E-2,4.9841028E-1],"split_indices":[85,37,49,56,115,68,1,85,85,0,5,1,110,62,14,88,116,17,116,0,0,90,57,13,60,99,69,41,45,0,0,87,81,35,61,114,76,0,0,115,54,109,16,1,21,84,0,6,104,0,45,110,61,0,0,0,0,0,0,0,0,0,0,0,0,0,0,0,0,0,0,0,0,0,0,0,0,0,0,0,0,0,0,0,0,0,0,0,0],"split_type":[0,0,0,0,0,0,0,0,0,0,0,0,0,0,0,0,0,0,0,0,0,0,0,0,0,0,0,0,0,0,0,0,0,0,0,0,0,0,0,0,0,0,0,0,0,0,0,0,0,0,0,0,0,0,0,0,0,0,0,0,0,0,0,0,0,0,0,0,0,0,0,0,0,0,0,0,0,0,0,0,0,0,0,0,0,0,0,0,0],"sum_hessian":[1.0291715E3,6.0279034E2,4.2638116E2,5.9121405E2,1.1576248E1,2.663649E2,1.6001627E2,3.1308887E1,5.599052E2,6.081628E0,5.494621E0,9.275174E1,1.7361314E2,4.5825974E1,1.141903E2,1.7851334E1,1.3457553E1,3.9082788E2,1.690773E2,1.0596615E0,4.4349594E0,2.092783E1,7.182391E1,3.7464523E1,1.3614862E2,3.3382652E1,1.2443319E1,1.0245174E1,1.0394513E2,1.6840345E1,1.0109887E0,9.148519E0,4.3090343E0,3.882073E2,2.6205819E0,6.0631596E1,1.0844571E2,1.9171797E1,1.7560327E0,5.4582684E1,1.7241228E1,2.8502996E1,8.961528E0,1.093579E1,1.2521283E2,3.1773266E1,1.609386E0,7.5154653E0,4.927854E0,7.937381E0,2.3077939E0,2.4583271E1,7.9361855E1,1.2462883E0,7.9022307E0,3.2789345E0,1.0300996E0,2.228246E1,3.6592484E2,1.6198916E0,1.0006902E0,1.2015871E1,4.8615723E1,1.0449157E2,3.9541419E0,1.4688686E1,3.9893997E1,1.5079612E1,2.1616163E0,2.5512814E1,2.9901826E0,1.3617797E0,7.5997477E0,7.7277203E0,3.2080693E0,1.1558956E2,9.623271E0,2.1181288E0,2.9655138E1,2.2051194E0,5.3103456E0,1.0004591E0,3.9273949E0,1.1177437E0,1.1900501E0,7.410993E0,1.7172277E1,1.2971427E0,7.806471E1],"tree_param":{"num_deleted":"0","num_feature":"120","num_nodes":"89","size_leaf_vector":"1"}},{"base_weights":[8.0585286E-2,5.3982854E-1,-3.5964042E-1,9.144585E-1,-1.8408506E-1,1.0456929E0,-4.7105104E-1,4.5591295E-2,1.2420789E0,1.2492328E0,-3.2645795E-1,-2.2229724E-1,1.4368944E0,9.282311E-1,-5.017445E-1,1.3396314E0,-1.19154505E-1,-1.4437488E-1,1.4808582E0,1.4693611E0,-1.042602E-1,-4.0238422E-1,7.858473E-1,3.348533E-1,-1.4525016E-1,1.5641991E0,-9.261326E-2,4.6839172E-1,-2.518211E-1,3.354214E-1,-5.2069825E-1,1.7669432E0,-1.3612597E-1,-3.718048E-1,6.9535196E-1,-2.9249924E-1,3.4985787E-1,1.6591102E0,1.0509777E-2,4.6498263E-1,1.2688565E-1,-9.2278935E-2,5.5313624E-2,1.3985199E0,-4.4250447E-1,1.9096396E0,-3.2404897E-1,1.7207268E-1,1.6105071E0,6.772028E-2,-9.507651E-2,-1.2163164E-1,5.2889332E-2,-1.2595697E-1,-5.3129804E-1,6.1460656E-1,1.6489671E-1,5.3108953E-2,-1.0062461E-1,-1.2673956E-1,3.1480324E-1,-1.3622747E-1,3.2362524E-1,1.7812294E-1,-1.388899E-1,5.5119085E-1,2.743324E-1,4.1720212E-1,-1.0331845E-1,3.113975E-2,5.972752E-1,4.95291E-2,-1.514458E-1,4.082972E-2,6.970507E-1,5.341602E-2,-1.342373E-1,6.388145E-1,4.1132724E-1,2.4504344E-1,-1.2376539E-1,-6.6579595E-2,-1.6056105E-1],"categories":[],"categories_nodes":[],"categories_segments":[],"categories_sizes":[],"default_left":[0,0,0,0,0,0,0,0,0,0,0,0,0,0,0,0,0,0,0,0,0,0,0,0,0,0,0,0,0,0,0,0,0,0,0,0,0,0,0,0,0,0,0,0,0,0,0,0,0,0,0,0,0,0,0,0,0,0,0,0,0,0,0,0,0,0,0,0,0,0,0,0,0,0,0,0,0,0,0,0,0,0,0],"id":13,"left_children":[1,3,5,7,9,11,13,15,17,19,21,23,25,27,29,31,33,35,37,39,41,43,45,-1,-1,47,49,-1,51,-1,53,55,57,59,61,63,-1,65,67,-1,-1,-1,-1,69,71,73,75,-1,77,-1,-1,-1,-1,79,81,-1,-1,-1,-1,-1,-1,-1,-1,-1,-1,-1,-1,-1,-1,-1,-1,-1,-1,-1,-1,-1,-1,-1,-1,-1,-1,-1,-1],"loss_changes":[2.2571588E2,1.4834052E2,8.975942E1,1.0247861E2,3.859947E1,2.124723E1,2.3183693E1,2.1407763E1,8.6796875E1,5.2532597E0,1.4760763E1,4.330603E0,6.448967E0,9.137155E0,1.6493195E1,7.3901215E0,1.8641558E1,7.977291E0,5.8481476E1,5.914955E-1,2.5205293E-1,1.223481E1,1.4672823E1,0E0,0E0,4.4992065E-1,3.1659847E-1,0E0,3.9688346E-1,0E0,2.0793152E0,1.9137669E0,2.7619845E-1,5.3990393E0,9.963751E0,5.7348976E0,0E0,2.473407E1,1.2792903E1,0E0,0E0,0E0,0E0,2.6648607E0,6.066574E0,3.8997536E0,4.8390943E-1,0E0,5.6549835E-1,0E0,0E0,0E0,0E0,4.3153443E0,4.8439026E-1,0E0,0E0,0E0,0E0,0E0,0E0,0E0,0E0,0E0,0E0,0E0,0E0,0E0,0E0,0E0,0E0,0E0,0E0,0E0,0E0,0E0,0E0,0E0,0E0,0E0,0E0,0E0,0E0],"parents":[2147483647,0,0,1,1,2,2,3,3,4,4,5,5,6,6,7,7,8,8,9,9,10,10,11,11,12,12,13,13,14,14,15,15,16,16,17,17,18,18,19,19,20,20,21,21,22,22,25,25,26,26,28,28,30,30,31,31,32,32,33,33,34,34,35,35,37,37,38,38,43,43,44,44,45,45,46,46,48,48,53,53,54,54],"right_children":[2,4,6,8,10,12,14,16,18,20,22,24,26,28,30,32,34,36,38,40,42,44,46,-1,-1,48,50,-1,52,-1,54,56,58,60,62,64,-1,66,68,-1,-1,-1,-1,70,72,74,76,-1,78,-1,-1,-1,-1,80,82,-1,-1,-1,-1,-1,-1,-1,-1,-1,-1,-1,-1,-1,-1,-1,-1,-1,-1,-1,-1,-1,-1,-1,-1,-1,-1,-1,-1],"split_conditions":[-2.3786485E-1,-1.2393745E-1,-1.0050927E0,-5.050956E-1,-1.3424066E0,3.1085622E-2,-2.2984781E0,-1.5819234E0,-1.3220127E0,8.406111E-1,3.091569E-1,-1.1865165E0,3.3427268E-1,-2.8398895E-1,-1.2275451E0,-6.07783E-1,6.3692063E-1,1.836287E0,4.3539461E-1,1.224678E0,6.2584865E-1,-1.1575342E0,-3.911667E-1,3.348533E-1,-1.4525016E-1,-4.334493E-1,-4.0637866E-1,4.6839172E-1,-1.6280621E-1,3.354214E-1,-8.480321E-1,-3.160508E-1,-7.73042E-1,7.59551E-2,-1.5507826E0,-2.4903552E-1,3.4985787E-1,2.3656895E-2,-1.016233E0,4.6498263E-1,1.2688565E-1,-9.2278935E-2,5.5313624E-2,6.298219E-1,-1.1757863E0,-5.70337E-1,-1.5756519E-1,1.7207268E-1,-6.6344184E-1,6.772028E-2,-9.507651E-2,-1.2163164E-1,5.2889332E-2,-9.8064584E-1,-1.8761661E0,6.1460656E-1,1.6489671E-1,5.3108953E-2,-1.0062461E-1,-1.2673956E-1,3.1480324E-1,-1.3622747E-1,3.2362524E-1,1.7812294E-1,-1.388899E-1,5.5119085E-1,2.743324E-1,4.1720212E-1,-1.0331845E-1,3.113975E-2,5.972752E-1,4.95291E-2,-1.514458E-1,4.082972E-2,6.970507E-1,5.341602E-2,-1.342373E-1,6.388145E-1,4.1132724E-1,2.4504344E-1,-1.2376539E-1,-6.6579595E-2,-1.6056105E-1],"split_indices":[85,78,111,61,14,61,13,45,89,9,88,65,119,119,118,98,4,56,33,39,40,51,69,0,0,100,37,0,10,0,118,18,56,109,61,108,0,91,81,0,0,0,0,24,33,93,69,0,3,0,0,0,0,81,37,0,0,0,0,0,0,0,0,0,0,0,0,0,0,0,0,0,0,0,0,0,0,0,0,0,0,0,0],"split_type":[0,0,0,0,0,0,0,0,0,0,0,0,0,0,0,0,0,0,0,0,0,0,0,0,0,0,0,0,0,0,0,0,0,0,0,0,0,0,0,0,0,0,0,0,0,0,0,0,0,0,0,0,0,0,0,0,0,0,0,0,0,0,0,0,0,0,0,0,0,0,0,0,0,0,0,0,0,0,0,0,0,0,0],"sum_hessian":[1.1145017E3,5.4535815E2,5.691436E2,3.5920435E2,1.8615378E2,4.1189793E1,5.2795386E2,9.866869E1,2.6053564E2,1.6117626E1,1.7003616E2,9.81346E0,3.1376333E1,1.07045145E1,5.172493E2,1.0337614E1,8.833108E1,3.8336E1,2.2219965E2,1.3789355E1,2.3282702E0,1.5976855E2,1.0267606E1,1.0719832E0,8.741477E0,2.8944529E1,2.4318047E0,6.7566333E0,3.947881E0,5.311715E0,5.119376E2,7.863416E0,2.474198E0,6.783346E1,2.0497618E1,3.5141064E1,3.1949358E0,1.9806021E2,2.4139437E1,1.2356608E1,1.4327475E0,1.327449E0,1.0008211E0,2.743881E0,1.5702467E2,4.743828E0,5.523778E0,1.8904328E0,2.7054094E1,1.0025661E0,1.4292386E0,2.944361E0,1.00352E0,1.3724223E1,4.9821338E2,5.8308525E0,2.032564E0,1.0056509E0,1.4685472E0,6.617714E1,1.6563182E0,5.080803E0,1.5416816E1,5.2683516E0,2.9872711E1,1.586334E2,3.942681E1,4.3407097E0,1.9798727E1,1.2302699E0,1.513611E0,1.4452829E1,1.4257184E2,1.1489675E0,3.5948606E0,1.0024402E0,4.5213375E0,6.0494285E0,2.1004667E1,2.7681553E0,1.0956067E1,6.9320436E0,4.9128134E2],"tree_param":{"num_deleted":"0","num_feature":"120","num_nodes":"83","size_leaf_vector":"1"}},{"base_weights":[-1.7929701E-2,-4.085531E-1,6.3825953E-1,-4.4506967E-1,1.1156656E0,1.153669E0,-5.2407887E-2,8.773694E-1,-4.9066E-1,-1.1580967E-1,4.2056227E-1,5.316733E-1,1.4828215E0,-2.2067524E-1,1.172723E0,-1.4066379E-1,4.4314227E-1,-5.071054E-1,3.6689433E-1,-3.4257773E-1,1.1335752E0,1.617317E0,-2.579319E-1,-3.8291422E-1,4.3537727E-1,5.9888196E-1,5.7408124E-1,-5.132852E-1,6.2213486E-1,-3.870661E-1,2.2378857E0,-5.086016E-1,1.1352762E0,-1.1189445E-1,1.321347E0,5.6394476E-2,1.6690886E0,3.323868E-1,-1.5106094E-1,-4.2766556E-1,9.7206515E-1,1.1954154E0,-2.8432685E-1,9.874699E-1,-2.8723142E-1,-1.5576857E-1,-1.1325034E-2,-1.0777112E-1,5.0088125E-1,6.763679E-2,-1.4474626E-1,1.8157762E-1,8.28258E-1,-1.6206571E-1,6.429576E-2,4.768548E-1,3.2150034E-2,-1.4442252E-1,2.4067387E-1,-1.1462793E-1,4.2415288E-1,-1.253634E-1,2.7123246E-1,5.1108503E-1,-3.7232533E-2,2.3226261E-1,-1.3540931E-1,-1.0197555E-1,5.83166E-1,5.042478E-1,-7.72838E-2,-1.511429E-1,1.71797E-1,3.6973065E-1,-1.0253655E-1,5.3314887E-2,-1.323246E-1],"categories":[],"categories_nodes":[],"categories_segments":[],"categories_sizes":[],"default_left":[0,0,0,0,0,0,0,0,0,0,0,0,0,0,0,0,0,0,0,0,0,0,0,0,0,0,0,0,0,0,0,0,0,0,0,0,0,0,0,0,0,0,0,0,0,0,0,0,0,0,0,0,0,0,0,0,0,0,0,0,0,0,0,0,0,0,0,0,0,0,0,0,0,0,0,0,0],"id":14,"left_children":[1,3,5,7,9,11,13,15,17,-1,-1,19,21,23,25,-1,-1,27,29,31,33,35,37,39,41,-1,43,45,47,49,51,53,55,57,59,61,63,-1,-1,65,67,69,71,73,75,-1,-1,-1,-1,-1,-1,-1,-1,-1,-1,-1,-1,-1,-1,-1,-1,-1,-1,-1,-1,-1,-1,-1,-1,-1,-1,-1,-1,-1,-1,-1,-1],"loss_changes":[2.7633643E2,3.8108856E1,1.4327032E2,4.0262253E1,7.4591923E0,4.6386627E1,3.589742E1,1.8759647E1,9.2018585E0,0E0,0E0,4.3168964E1,3.556491E1,1.6434843E1,9.224543E0,0E0,0E0,4.6995544E0,1.8653488E1,8.8994E0,1.1462517E1,1.1178711E1,4.4592676E0,7.878399E0,1.7171885E1,0E0,5.1204867E0,1.7462921E0,4.5762825E0,6.839086E-1,1.5471783E0,8.2851887E-1,1.5738907E0,2.8387055E0,7.1768417E0,2.59434E0,8.568939E0,0E0,0E0,3.7625866E0,6.06719E0,1.11244755E1,3.4132805E0,3.4834986E0,4.4893664E-1,0E0,0E0,0E0,0E0,0E0,0E0,0E0,0E0,0E0,0E0,0E0,0E0,0E0,0E0,0E0,0E0,0E0,0E0,0E0,0E0,0E0,0E0,0E0,0E0,0E0,0E0,0E0,0E0,0E0,0E0,0E0,0E0],"parents":[2147483647,0,0,1,1,2,2,3,3,4,4,5,5,6,6,7,7,8,8,11,11,12,12,13,13,14,14,17,17,18,18,19,19,20,20,21,21,22,22,23,23,24,24,26,26,27,27,28,28,29,29,30,30,31,31,32,32,33,33,34,34,35,35,36,36,39,39,40,40,41,41,42,42,43,43,44,44],"right_children":[2,4,6,8,10,12,14,16,18,-1,-1,20,22,24,26,-1,-1,28,30,32,34,36,38,40,42,-1,44,46,48,50,52,54,56,58,60,62,64,-1,-1,66,68,70,72,74,76,-1,-1,-1,-1,-1,-1,-1,-1,-1,-1,-1,-1,-1,-1,-1,-1,-1,-1,-1,-1,-1,-1,-1,-1,-1,-1,-1,-1,-1,-1,-1,-1],"split_conditions":[6.6498077E-1,1.2960377E0,-3.6760423E-1,-1.2299027E0,-3.992523E-1,3.6839518E-1,1.1171415E0,2.1478207E-1,8.2503414E-1,-1.1580967E-1,4.2056227E-1,1.4414304E0,1.7373933E-2,1.2199076E0,-1.6528E-1,-1.4066379E-1,4.4314227E-1,4.7293816E0,9.510742E-1,1.9649963E0,2.1774274E-1,-9.9255514E-1,2.1242188E-2,1.3751361E0,-8.8936344E-2,5.9888196E-1,-6.0310442E-2,1.0534191E0,8.4409624E-2,-9.629492E-1,1.2383304E-2,1.3595352E0,-5.270707E-1,7.4187136E-1,-1.1491631E0,2.343053E-1,1.9356036E-1,3.323868E-1,-1.5106094E-1,-1.4506838E0,7.1624327E-1,1.13264725E-1,9.2294776E-1,6.357503E-2,2.261156E-2,-1.5576857E-1,-1.1325034E-2,-1.0777112E-1,5.0088125E-1,6.763679E-2,-1.4474626E-1,1.8157762E-1,8.28258E-1,-1.6206571E-1,6.429576E-2,4.768548E-1,3.2150034E-2,-1.4442252E-1,2.4067387E-1,-1.1462793E-1,4.2415288E-1,-1.253634E-1,2.7123246E-1,5.1108503E-1,-3.7232533E-2,2.3226261E-1,-1.3540931E-1,-1.0197555E-1,5.83166E-1,5.042478E-1,-7.72838E-2,-1.511429E-1,1.71797E-1,3.6973065E-1,-1.0253655E-1,5.3314887E-2,-1.323246E-1],"split_indices":[85,5,59,113,53,6,68,108,89,0,0,85,51,89,54,0,0,95,5,80,69,105,86,28,83,0,47,88,66,28,84,68,45,37,107,57,75,0,0,100,98,42,60,109,49,0,0,0,0,0,0,0,0,0,0,0,0,0,0,0,0,0,0,0,0,0,0,0,0,0,0,0,0,0,0,0,0],"split_type":[0,0,0,0,0,0,0,0,0,0,0,0,0,0,0,0,0,0,0,0,0,0,0,0,0,0,0,0,0,0,0,0,0,0,0,0,0,0,0,0,0,0,0,0,0,0,0,0,0,0,0,0,0,0,0,0,0,0,0,0,0,0,0,0,0,0,0,0,0,0,0,0,0,0,0,0,0],"sum_hessian":[1.076062E3,6.747606E2,4.0130142E2,6.596647E2,1.5095958E1,2.2942386E2,1.7187756E2,2.1375677E1,6.38289E2,2.360733E0,1.2735225E1,8.029901E1,1.4912485E2,1.5184242E2,2.0035137E1,6.6553335E0,1.4720344E1,6.2667975E2,1.1609247E1,3.2917625E1,4.7381382E1,1.3849522E2,1.0629625E1,1.220711E2,2.9771324E1,7.4506397E0,1.2584498E1,6.238114E2,2.8683515E0,8.840058E0,2.7691891E0,3.0182714E1,2.7349107E0,6.26047E0,4.112091E1,4.513116E0,1.339821E2,1.0849156E0,9.544709E0,1.1883081E2,3.2402883E0,1.4158434E1,1.561289E1,8.4043455E0,4.1801534E0,6.160203E2,7.791077E0,1.8201239E0,1.0482275E0,1.0078437E0,7.8322144E0,1.1952333E0,1.5739557E0,2.9160107E1,1.0226092E0,1.5181181E0,1.2167926E0,4.795435E0,1.4650348E0,1.9565947E0,3.9164318E1,3.2191458E0,1.2939703E0,1.3150002E2,2.482083E0,1.6854448E0,1.1714536E2,1.6555198E0,1.5847683E0,1.049546E1,3.6629744E0,1.2757634E1,2.8552556E0,7.158047E0,1.246298E0,1.0007354E0,3.1794178E0],"tree_param":{"num_deleted":"0","num_feature":"120","num_nodes":"77","size_leaf_vector":"1"}},{"base_weights":[-1.5106282E-1,7.608588E-1,-4.811739E-1,9.9247354E-1,-3.3213514E-1,4.6178094E-1,-5.086078E-1,1.6185263E-1,1.1994407E0,-4.651083E-1,9.0449977E-1,1.2630042E0,-2.1730271E-1,1.7421614E-1,-5.2282995E-1,1.051462E0,-2.6010862E-1,1.2930981E0,-3.2974643E-1,4.0318337E-1,-1.584621E-1,-1.0629625E-1,5.127295E-1,-9.993427E-2,4.810748E-1,3.7668985E-1,-1.5480262E-1,6.041318E-1,-2.2659388E-1,1.837182E-1,-5.265422E-1,1.3544731E0,-1.2613289E-1,-4.787512E-1,6.2855357E-1,1.3673387E0,2.0375755E-1,2.0778339E-1,-1.494697E-1,-9.1500945E-2,2.8019562E-1,3.0207896E-1,-4.1915187E-1,-1.164672E-1,2.7568352E-1,-3.8931122E-1,-5.375057E-1,6.0775045E-2,4.712724E-1,-1.6569945E-1,9.475644E-2,3.1774196E-1,-1.0698106E-1,-1.285973E-1,4.2176282E-1,4.1534323E-1,-1.15895495E-1,-1.4770856E-1,6.464341E-2,-1.3172005E-1,3.32143E-1,5.6049734E-2,-1.6170605E-1],"categories":[],"categories_nodes":[],"categories_segments":[],"categories_sizes":[],"default_left":[0,0,0,0,0,0,0,0,0,0,0,0,0,0,0,0,0,0,0,0,0,0,0,0,0,0,0,0,0,0,0,0,0,0,0,0,0,0,0,0,0,0,0,0,0,0,0,0,0,0,0,0,0,0,0,0,0,0,0,0,0,0,0],"id":15,"left_children":[1,3,5,7,9,11,13,15,17,19,21,23,25,27,29,31,33,35,37,39,-1,-1,-1,-1,-1,-1,-1,-1,41,43,45,47,-1,49,51,53,55,-1,-1,-1,-1,-1,57,-1,-1,59,61,-1,-1,-1,-1,-1,-1,-1,-1,-1,-1,-1,-1,-1,-1,-1,-1],"loss_changes":[3.087627E2,6.93569E1,1.9708572E1,3.8527573E1,8.383982E0,1.2139103E1,7.199478E0,1.7572914E1,2.6228485E1,2.6447697E0,5.7116165E0,6.0518856E0,6.2161775E0,1.2021006E1,1.9780884E0,7.270626E0,6.530183E0,1.3466919E1,2.2732859E0,1.6283981E0,0E0,0E0,0E0,0E0,0E0,0E0,0E0,0E0,3.694602E0,2.2449558E0,8.6468506E-1,2.8471756E0,0E0,1.7119923E0,3.2464309E0,1.1603638E1,8.908926E0,0E0,0E0,0E0,0E0,0E0,6.925936E-1,0E0,0E0,4.6880417E0,8.229065E-1,0E0,0E0,0E0,0E0,0E0,0E0,0E0,0E0,0E0,0E0,0E0,0E0,0E0,0E0,0E0,0E0],"parents":[2147483647,0,0,1,1,2,2,3,3,4,4,5,5,6,6,7,7,8,8,9,9,10,10,11,11,12,12,13,13,14,14,15,15,16,16,17,17,18,18,19,19,28,28,29,29,30,30,31,31,33,33,34,34,35,35,36,36,42,42,45,45,46,46],"right_children":[2,4,6,8,10,12,14,16,18,20,22,24,26,28,30,32,34,36,38,40,-1,-1,-1,-1,-1,-1,-1,-1,42,44,46,48,-1,50,52,54,56,-1,-1,-1,-1,-1,58,-1,-1,60,62,-1,-1,-1,-1,-1,-1,-1,-1,-1,-1,-1,-1,-1,-1,-1,-1],"split_conditions":[-9.100733E-1,9.694305E-2,-1.2387477E0,-2.1719494E-1,-2.0874669E-1,-7.670089E-1,-1.7716113E0,-8.2835394E-1,4.6058366E-1,-8.5636216E-1,6.450762E-1,-7.7772987E-1,-1.9911867E0,-1.3026788E0,-1.1372184E0,-2.7374744E-1,-5.7742244E-1,6.9439344E-2,-1.0321648E0,-1.1582509E0,-1.584621E-1,-1.0629625E-1,5.127295E-1,-9.993427E-2,4.810748E-1,3.7668985E-1,-1.5480262E-1,6.041318E-1,-9.239378E-1,3.9896175E-1,-1.2052176E0,3.1224024E-1,-1.2613289E-1,-2.154136E-2,-2.1922092E-1,-1.8973737E0,-1.3708128E0,2.0778339E-1,-1.494697E-1,-9.1500945E-2,2.8019562E-1,3.0207896E-1,1.4827082E-1,-1.164672E-1,2.7568352E-1,1.675398E0,-2.2944896E0,6.0775045E-2,4.712724E-1,-1.6569945E-1,9.475644E-2,3.1774196E-1,-1.0698106E-1,-1.285973E-1,4.2176282E-1,4.1534323E-1,-1.15895495E-1,-1.4770856E-1,6.464341E-2,-1.3172005E-1,3.32143E-1,5.6049734E-2,-1.6170605E-1],"split_indices":[115,67,95,32,99,5,70,41,1,51,74,92,105,105,6,85,99,54,105,98,0,0,0,0,0,0,0,0,6,80,77,106,0,113,65,78,21,0,0,0,0,0,82,0,0,72,42,0,0,0,0,0,0,0,0,0,0,0,0,0,0,0,0],"split_type":[0,0,0,0,0,0,0,0,0,0,0,0,0,0,0,0,0,0,0,0,0,0,0,0,0,0,0,0,0,0,0,0,0,0,0,0,0,0,0,0,0,0,0,0,0,0,0,0,0,0,0,0,0,0,0,0,0,0,0,0,0,0,0],"sum_hessian":[1.0234528E3,2.716695E2,7.517833E2,2.2424254E2,4.7426956E1,2.0806105E1,7.3097723E2,4.5085003E1,1.7915753E2,4.3385666E1,4.0412917E0,9.15024E0,1.1655864E1,1.4684929E1,7.162923E2,1.4024881E1,3.1060122E1,1.689635E2,1.0194032E1,2.5741024E0,4.081156E1,1.7940588E0,2.247233E0,1.6129725E0,7.5372677E0,1.4250909E0,1.0230773E1,1.9072342E0,1.2777695E1,3.4902897E0,7.12802E2,1.1696737E1,2.3281448E0,2.529734E1,5.7627797E0,1.5794412E2,1.1019385E1,1.0021682E0,9.191864E0,1.2850304E0,1.2890722E0,1.1542643E0,1.162343E1,2.2286005E0,1.2616892E0,5.543441E1,6.573676E2,2.1563601E0,9.540377E0,2.3432405E1,1.8649358E0,3.9578223E0,1.8049574E0,3.1052182E0,1.548389E2,3.2233372E0,7.7960477E0,1.0622239E1,1.0011915E0,5.4334442E1,1.0999686E0,1.1162444E0,6.5625134E2],"tree_param":{"num_deleted":"0","num_feature":"120","num_nodes":"63","size_leaf_vector":"1"}},{"base_weights":[7.751653E-2,-2.8022227E-1,2.1445103E-1,7.465081E-1,-3.3270496E-1,4.3159744E-1,-2.778841E-1,-3.737852E-1,2.1056345E0,-3.8456213E-1,5.0246507E-1,9.0492207E-1,2.3265168E-1,-3.261524E-1,1.2701762E0,-1.433098E-1,6.7324854E-2,5.2955758E-2,7.3628587E-1,-4.3297145E-1,2.9649916E-1,-3.03958E-1,1.4417317E0,1.0555044E-2,1.2329339E0,-2.5116152E-1,6.719557E-1,-8.2647316E-2,-4.8484656E-1,7.854441E-1,1.4691322E-1,-4.5554706E-1,9.399594E-1,1.9161682E0,-3.63371E-1,-1.4867574E-1,1.9844665E-1,1.8084596E0,-9.621501E-2,1.1979111E0,-3.1210876E-1,3.9131352E-1,1.6361017E0,-2.8420135E-1,1.2975225E0,-1.24985024E-1,1.0098963E0,-3.457408E-1,4.37097E-1,-5.123734E-1,4.068633E-1,3.448719E-1,-1.2161646E-1,-1.4003924E-1,1.6370164E-1,-1.0894822E-1,6.477801E-1,9.126441E-1,-1.02435455E-1,-1.5085724E-1,1.946694E-1,6.153359E-1,1.4567153E-1,-9.188111E-2,4.405161E-1,-1.4942259E-1,1.9534668E-1,-2.4759343E-3,5.5254424E-1,5.78897E-1,-3.14262E-2,2.5709963E-1,-9.485215E-2,5.34756E-2,5.013438E-1,3.2472306E-1,-7.424166E-2,-1.917047E-2,3.9898515E-1,6.183775E-2,-1.5334651E-1,4.1411898E-1,-2.9325524E-2,-1.5797429E-1,1.9329025E-1],"categories":[],"categories_nodes":[],"categories_segments":[],"categories_sizes":[],"default_left":[0,0,0,0,0,0,0,0,0,0,0,0,0,0,0,0,0,0,0,0,0,0,0,0,0,0,0,0,0,0,0,0,0,0,0,0,0,0,0,0,0,0,0,0,0,0,0,0,0,0,0,0,0,0,0,0,0,0,0,0,0,0,0,0,0,0,0,0,0,0,0,0,0,0,0,0,0,0,0,0,0,0,0,0,0],"id":16,"left_children":[1,3,5,7,9,11,13,15,17,19,21,23,25,27,29,-1,-1,-1,-1,31,33,35,37,39,41,43,45,47,49,-1,51,53,55,57,59,-1,-1,61,-1,63,65,67,69,71,73,75,77,79,81,83,-1,-1,-1,-1,-1,-1,-1,-1,-1,-1,-1,-1,-1,-1,-1,-1,-1,-1,-1,-1,-1,-1,-1,-1,-1,-1,-1,-1,-1,-1,-1,-1,-1,-1,-1],"loss_changes":[5.2847588E1,1.6345545E1,8.3493576E1,2.3376078E1,1.2531834E1,5.078627E1,1.8294874E1,6.655129E-1,4.1767216E0,8.990784E0,1.3382153E1,4.690143E1,8.149632E1,8.958084E0,1.088026E1,0E0,0E0,0E0,0E0,8.219418E0,2.0395882E1,2.1816902E0,5.794897E0,1.7200844E1,3.9058914E1,9.7235985E0,5.4210472E1,1.28792715E1,7.8290215E0,0E0,3.3000193E0,3.0479774E0,7.764186E0,1.5007252E1,2.2941756E0,0E0,0E0,1.1963177E0,0E0,4.3521204E0,6.653047E0,2.2739199E1,4.046663E1,6.832286E0,1.3742795E0,9.243176E0,4.8587616E1,5.7977753E0,1.6140564E1,2.6305046E0,0E0,0E0,0E0,0E0,0E0,0E0,0E0,0E0,0E0,0E0,0E0,0E0,0E0,0E0,0E0,0E0,0E0,0E0,0E0,0E0,0E0,0E0,0E0,0E0,0E0,0E0,0E0,0E0,0E0,0E0,0E0,0E0,0E0,0E0,0E0],"parents":[2147483647,0,0,1,1,2,2,3,3,4,4,5,5,6,6,7,7,8,8,9,9,10,10,11,11,12,12,13,13,14,14,19,19,20,20,21,21,22,22,23,23,24,24,25,25,26,26,27,27,28,28,30,30,31,31,32,32,33,33,34,34,37,37,39,39,40,40,41,41,42,42,43,43,44,44,45,45,46,46,47,47,48,48,49,49],"right_children":[2,4,6,8,10,12,14,16,18,20,22,24,26,28,30,-1,-1,-1,-1,32,34,36,38,40,42,44,46,48,50,-1,52,54,56,58,60,-1,-1,62,-1,64,66,68,70,72,74,76,78,80,82,84,-1,-1,-1,-1,-1,-1,-1,-1,-1,-1,-1,-1,-1,-1,-1,-1,-1,-1,-1,-1,-1,-1,-1,-1,-1,-1,-1,-1,-1,-1,-1,-1,-1,-1,-1],"split_conditions":[-7.188218E-1,-1.6675619E0,5.985168E-1,2.0467718E-3,1.4254383E0,-4.596469E-1,1.6455867E0,2.6007208E-1,2.0794515E-1,8.10656E-1,-4.6860933E-1,-7.442568E-1,3.0258256E-1,1.1328502E0,-4.3874073E-1,-1.433098E-1,6.7324854E-2,5.2955758E-2,7.3628587E-1,2.36837E0,-3.25197E-1,1.0149469E0,4.4354764E-1,-1.3220127E0,-4.4177717E-1,2.3497958E0,-2.0924357E-1,3.184197E-1,2.4544828E0,7.854441E-1,-9.630298E-1,1.9421833E0,1.2319764E0,-1.2168767E0,1.860664E0,-1.4867574E-1,1.9844665E-1,5.4937196E-1,-9.621501E-2,1.7542582E-2,9.0539634E-1,6.500745E-1,1.0254303E0,-1.6248218E0,6.00934E-1,-8.616764E-1,-2.890733E-1,1.1856372E-1,-2.9443657E-1,2.5387754E0,4.068633E-1,3.448719E-1,-1.2161646E-1,-1.4003924E-1,1.6370164E-1,-1.0894822E-1,6.477801E-1,9.126441E-1,-1.02435455E-1,-1.5085724E-1,1.946694E-1,6.153359E-1,1.4567153E-1,-9.188111E-2,4.405161E-1,-1.4942259E-1,1.9534668E-1,-2.4759343E-3,5.5254424E-1,5.78897E-1,-3.14262E-2,2.5709963E-1,-9.485215E-2,5.34756E-2,5.013438E-1,3.2472306E-1,-7.424166E-2,-1.917047E-2,3.9898515E-1,6.183775E-2,-1.5334651E-1,4.1411898E-1,-2.9325524E-2,-1.5797429E-1,1.9329025E-1],"split_indices":[115,45,115,1,62,53,73,79,12,86,6,77,62,115,49,0,0,0,0,105,117,73,68,89,115,26,105,100,10,0,39,57,112,114,71,0,0,29,0,109,13,11,110,70,105,83,93,111,40,27,0,0,0,0,0,0,0,0,0,0,0,0,0,0,0,0,0,0,0,0,0,0,0,0,0,0,0,0,0,0,0,0,0,0,0],"split_type":[0,0,0,0,0,0,0,0,0,0,0,0,0,0,0,0,0,0,0,0,0,0,0,0,0,0,0,0,0,0,0,0,0,0,0,0,0,0,0,0,0,0,0,0,0,0,0,0,0,0,0,0,0,0,0,0,0,0,0,0,0,0,0,0,0,0,0,0,0,0,0,0,0,0,0,0,0,0,0,0,0,0,0,0,0],"sum_hessian":[1.0765864E3,2.977289E2,7.7885754E2,1.3835626E1,2.8389328E2,5.405633E2,2.3829428E2,7.981587E0,5.8540387E0,2.6780438E2,1.6088903E1,1.5891939E2,3.816439E2,2.318544E2,6.439872E0,6.9719276E0,1.0096594E0,1.1266258E0,4.727413E0,2.5037236E2,1.7432007E1,9.020549E0,7.068355E0,4.2921234E1,1.1599815E2,1.8182506E2,1.9981883E2,9.2081924E1,1.3977248E2,2.3222349E0,4.1176367E0,2.4697939E2,3.3929803E0,4.4950156E0,1.2936993E1,7.9326963E0,1.0878528E0,5.829296E0,1.2390589E0,8.591861E0,3.4329372E1,3.8208267E1,7.778989E1,1.7882645E2,2.9986196E0,5.9688923E1,1.4012991E2,6.1357616E1,3.072431E1,1.384245E2,1.3479776E0,1.0784224E0,3.0392144E0,2.4476283E2,2.2165449E0,1.9795349E0,1.4134455E0,2.7673225E0,1.727693E0,1.1812514E1,1.1244779E0,4.460594E0,1.3687022E0,1.2893174E0,7.302543E0,2.9179037E1,5.1503353E0,3.0735834E1,7.4724326E0,6.647241E1,1.1317478E1,4.1703134E0,1.7465613E2,1.120126E0,1.8784935E0,4.7757635E0,5.491316E1,3.236019E1,1.0776972E2,1.40931E1,4.726452E1,1.0545162E1,2.017915E1,1.3728299E2,1.1415117E0],"tree_param":{"num_deleted":"0","num_feature":"120","num_nodes":"85","size_leaf_vector":"1"}},{"base_weights":[-5.107667E-2,6.3037E-1,-3.7823159E-1,1.0875442E0,-1.4782794E-1,1.373118E0,-4.075884E-1,1.2343987E0,-2.9952356E-1,-3.386472E-1,6.030827E-1,4.843614E-1,-9.856152E-2,7.1995095E-3,-4.6774703E-1,5.1207674E-1,1.4762961E0,-1.5361516E-1,2.3470567E-1,3.806489E-1,-4.1285068E-1,1.4274836E0,-3.007787E-1,-3.71074E-1,7.8456795E-1,-1.4528464E-1,-4.9741784E-1,1.1799053E0,-2.7077335E-1,-1.4063948E-1,1.5371226E0,3.7758663E-1,-1.3337517E-1,8.0247194E-1,-2.7307436E-1,-4.5171055E-1,6.421004E-1,-1.1746952E-1,1.8244566E0,2.5710088E-1,-1.5597838E-1,7.601375E-1,-4.310619E-1,1.3684597E0,-3.9557704E-1,6.997847E-1,-3.683223E-1,-5.024197E-1,3.7529007E-1,-1.3441558E-1,4.4693097E-1,-1.4695124E-1,3.2151812E-1,6.030373E-2,4.8966262E-1,1.9229397E-1,-1.4228453E-1,1.6341645E-1,-1.4492074E-1,-1.0348894E-1,4.7436652E-1,1.492724E-2,6.20417E-1,-9.390963E-2,4.936052E-1,-1.4365463E-1,1.3839233E-1,1.5270065E-3,5.54534E-1,6.70959E-2,-1.4537233E-1,3.698898E-1,-1.2646379E-1,8.092132E-2,-1.4140995E-1,-9.698932E-2,-1.5658349E-1,-1.0262247E-1,3.4034407E-1],"categories":[],"categories_nodes":[],"categories_segments":[],"categories_sizes":[],"default_left":[0,0,0,0,0,0,0,0,0,0,0,0,0,0,0,0,0,0,0,0,0,0,0,0,0,0,0,0,0,0,0,0,0,0,0,0,0,0,0,0,0,0,0,0,0,0,0,0,0,0,0,0,0,0,0,0,0,0,0,0,0,0,0,0,0,0,0,0,0,0,0,0,0,0,0,0,0,0,0],"id":17,"left_children":[1,3,5,7,9,11,13,15,17,19,21,-1,-1,23,25,27,29,-1,31,33,35,37,39,41,43,45,47,49,51,-1,53,-1,-1,-1,55,57,59,-1,61,-1,-1,63,65,67,69,71,73,75,77,-1,-1,-1,-1,-1,-1,-1,-1,-1,-1,-1,-1,-1,-1,-1,-1,-1,-1,-1,-1,-1,-1,-1,-1,-1,-1,-1,-1,-1,-1],"loss_changes":[2.3547057E2,1.2205763E2,3.7244446E1,4.4358185E1,1.8498709E1,5.4569016E0,1.7533531E1,3.3398224E1,2.5589075E0,5.6251287E0,1.9974586E1,0E0,0E0,2.6747358E1,5.798065E0,2.6757765E1,1.7982697E1,0E0,5.288323E0,1.5879183E1,4.11677E0,1.0746056E1,3.8297997E0,4.4805593E0,2.1055546E1,1.026821E1,2.6393433E0,1.4527782E1,7.6106787E0,0E0,1.7675629E1,0E0,0E0,0E0,1.9165688E0,3.094593E0,4.002384E0,0E0,4.903412E0,0E0,0E0,3.7866018E0,2.7264185E0,1.3170742E1,6.941798E-1,7.3565636E0,2.9330006E0,1.785141E0,2.442353E0,0E0,0E0,0E0,0E0,0E0,0E0,0E0,0E0,0E0,0E0,0E0,0E0,0E0,0E0,0E0,0E0,0E0,0E0,0E0,0E0,0E0,0E0,0E0,0E0,0E0,0E0,0E0,0E0,0E0,0E0],"parents":[2147483647,0,0,1,1,2,2,3,3,4,4,5,5,6,6,7,7,8,8,9,9,10,10,13,13,14,14,15,15,16,16,18,18,19,19,20,20,21,21,22,22,23,23,24,24,25,25,26,26,27,27,28,28,30,30,34,34,35,35,36,36,38,38,41,41,42,42,43,43,44,44,45,45,46,46,47,47,48,48],"right_children":[2,4,6,8,10,12,14,16,18,20,22,-1,-1,24,26,28,30,-1,32,34,36,38,40,42,44,46,48,50,52,-1,54,-1,-1,-1,56,58,60,-1,62,-1,-1,64,66,68,70,72,74,76,78,-1,-1,-1,-1,-1,-1,-1,-1,-1,-1,-1,-1,-1,-1,-1,-1,-1,-1,-1,-1,-1,-1,-1,-1,-1,-1,-1,-1,-1,-1],"split_conditions":[-4.5220566E-1,-1.452984E-1,-2.7468688E0,8.509455E-1,4.9674636E-1,-1.1619583E0,-7.8524303E-1,-6.45573E-1,-7.99598E-1,-3.1353956E-1,5.038354E-1,4.843614E-1,-9.856152E-2,3.7510478E-1,-2.2010972E-1,-7.721121E-1,-1.318001E0,-1.5361516E-1,1.2551004E-1,-1.2525167E0,6.1377627E-1,-2.8228378E-1,-1.3862504E0,-1.1914748E0,-8.184339E-1,-8.214276E-1,2.7627366E0,1.7289193E-2,2.7394652E0,-1.4063948E-1,-1.0076971E-1,3.7758663E-1,-1.3337517E-1,8.0247194E-1,-8.237465E-1,-2.487441E0,2.8980443E-1,-1.1746952E-1,-4.9468717E-1,2.5710088E-1,-1.5597838E-1,6.8949103E-1,1.3063267E0,-3.1669044E-1,-5.6548315E-1,2.0261566E-1,-5.571038E-1,-6.835471E-1,2.4428985E-1,-1.3441558E-1,4.4693097E-1,-1.4695124E-1,3.2151812E-1,6.030373E-2,4.8966262E-1,1.9229397E-1,-1.4228453E-1,1.6341645E-1,-1.4492074E-1,-1.0348894E-1,4.7436652E-1,1.492724E-2,6.20417E-1,-9.390963E-2,4.936052E-1,-1.4365463E-1,1.3839233E-1,1.5270065E-3,5.54534E-1,6.70959E-2,-1.4537233E-1,3.698898E-1,-1.2646379E-1,8.092132E-2,-1.4140995E-1,-9.698932E-2,-1.5658349E-1,-1.0262247E-1,3.4034407E-1],"split_indices":[5,64,61,61,54,77,65,53,65,112,91,0,0,3,5,17,100,0,106,81,90,95,1,55,61,44,98,109,51,0,0,0,0,0,68,62,49,0,106,0,0,92,41,49,71,25,64,114,55,0,0,0,0,0,0,0,0,0,0,0,0,0,0,0,0,0,0,0,0,0,0,0,0,0,0,0,0,0,0],"split_type":[0,0,0,0,0,0,0,0,0,0,0,0,0,0,0,0,0,0,0,0,0,0,0,0,0,0,0,0,0,0,0,0,0,0,0,0,0,0,0,0,0,0,0,0,0,0,0,0,0,0,0,0,0,0,0,0,0,0,0,0,0,0,0,0,0,0,0,0,0,0,0,0,0,0,0,0,0,0,0],"sum_hessian":[1.0541431E3,3.416263E2,7.125167E2,2.1495026E2,1.2667607E2,1.0991965E1,7.015248E2,1.944709E2,2.0479362E1,1.0144594E2,2.5230133E1,9.67109E0,1.3208749E0,8.896944E1,6.125553E2,4.9569607E1,1.4490129E2,1.4680632E1,5.7987304E0,9.10044E0,9.23455E1,1.2892095E1,1.2338039E1,6.0198856E1,2.8770576E1,5.2110897E1,5.604444E2,2.6476238E1,2.3093369E1,4.1905293E0,1.4071075E2,1.972565E0,3.8261652E0,1.332433E0,7.7680073E0,8.9616234E1,2.72926E0,2.3119001E0,1.0580194E1,1.5004518E0,1.0837587E1,2.4438E0,5.775506E1,1.9140835E1,9.629741E0,1.0435234E1,4.1675663E1,5.576725E2,2.7719674E0,4.1623325E0,2.2313906E1,2.0399746E1,2.6936224E0,9.555453E0,1.311553E2,1.0071254E0,6.760882E0,2.234766E0,8.738147E1,1.6391284E0,1.0901315E0,1.4223334E0,9.157861E0,1.3967979E0,1.0470022E0,5.5259293E1,2.4957666E0,5.2471814E0,1.3893654E1,1.0199629E0,8.609777E0,7.0049133E0,3.43032E0,5.5697165E0,3.6105946E1,5.653989E1,5.0113257E2,1.7077355E0,1.0642319E0],"tree_param":{"num_deleted":"0","num_feature":"120","num_nodes":"79","size_leaf_vector":"1"}},{"base_weights":[-8.0266505E-2,-3.5735938E-1,6.0667336E-1,-4.4221154E-1,2.421033E-1,-2.966674E-1,9.092598E-1,-5.174485E-1,-2.2718331E-1,-4.5064932E-1,7.281682E-1,4.8112044E-1,-4.1873536E-1,1.422362E-1,1.2368596E0,-5.2146745E-1,2.164575E-1,-4.3976676E-1,3.071271E-1,2.384673E-1,-1.5729111E-1,-4.2655107E-1,1.0632706E0,-1.3452981E-1,1.2773482E0,-4.8639187E-1,3.3098805E-1,-3.6647472E-1,5.4048705E-1,4.071661E-1,1.4258347E0,-5.2741736E-1,-1.1874933E-2,-9.302239E-2,2.1807577E-1,-4.990398E-1,6.4308845E-2,-1.5916644E-1,9.3891966E-1,3.6267936E-1,-1.1776734E-1,-1.4930896E-1,6.445985E-2,-1.4546059E-1,1.2793854E0,-9.869495E-2,5.416648E-1,-5.1754177E-1,1.3988848E-1,-1.1865446E-1,1.0187988E0,4.179555E-1,-4.5204023E-1,1.0154892E0,-1.8545732E-1,-4.6812826E-1,1.0825462E0,1.5184982E0,-2.4554572E-1,-1.5884244E-1,4.9896788E-2,3.2718047E-1,-1.3379054E-1,-1.575626E-1,1.7952643E-2,